tree
version=v3
num_class=1
num_tree_per_iteration=1
label_index=0
max_feature_idx=82
objective=binary sigmoid:1
feature_names=HR_cummin O2Sat_cummin Temp_cummin SBP_cummin MAP_cummin DBP_cummin FiO2_cummin pH_cummin PaCO2_cummin BUN_cummin Calcium_cummin Creatinine_cummin Glucose_cummin Magnesium_cummin Potassium_cummin Hct_cummin Hgb_cummin WBC_cummin Platelets_cummin HR_cummax Temp_cummax SBP_cummax MAP_cummax DBP_cummax Resp_cummax BaseExcess_cummax FiO2_cummax pH_cummax PaCO2_cummax BUN_cummax Calcium_cummax Creatinine_cummax Glucose_cummax Magnesium_cummax Potassium_cummax Hct_cummax Hgb_cummax WBC_cummax Platelets_cummax HR_roll_mean O2Sat_roll_mean Temp_roll_mean SBP_roll_mean MAP_roll_mean Resp_roll_mean BaseExcess_roll_mean FiO2_roll_mean pH_roll_mean PaCO2_roll_mean BUN_roll_mean Calcium_roll_mean Creatinine_roll_mean Glucose_roll_mean Hgb_roll_mean WBC_roll_mean Platelets_roll_mean HR_roll_std O2Sat_roll_std SBP_roll_std MAP_roll_std FiO2_roll_std pH_roll_std PaCO2_roll_std Calcium_roll_std HR_lag Temp_lag FiO2_lag pH_lag BUN_lag Creatinine_lag WBC_lag Platelets_lag ICULOS HR Temp FiO2 pH PaCO2 BUN Calcium Creatinine WBC Platelets
feature_infos=[-3.8894862604540026:4.652927120669057] [-25.371710526315788:0.94407894736842257] [-8.8333333333333321:6.8611111111111081] [-4.3802938634399311:5.5159896283491792] [-3.7849264705882351:7.9797794117647065] [-3.0834522111269616:7.5442225392296729] [-265.73684210526318:7.9473684210526319] [-9.0000000000000018:5.6666666666666794] [-3.5065088757396454:7.0260355029585799] [-1.1594498217014775:12.340295466123282] [-3.2476190476190476:6.8476190476190473] [-0.73762376237623761:22.28217821782178] [-2.3154899894625922:16.483245521601685] [-4.8684210526315788:11.710526315789474] [-4.5081967213114762:9.2622950819672134] [-4.5433628318584072:5.9876106194690255] [-4.1435897435897449:5.4461538461538455] [-1.8705281090289609:27.022146507666093] [-1.937592867756315:11.356116889549282] [-3.5908004778972522:8.2371565113500598] [-7.6805555555555571:18.25] [-2.8245462402765771:7.3310285220397571] [-3.7849264705882351:13.249387254901961] [-2.940798858773181:16.317403708987161] [-3.4700193423597683:15.485493230174082] [-7.4516971279373365:6.3864229765013052] [-2.5789473684210527:7.9473684210526319] [-9.0000000000000018:5.6666666666666794] [-3.5065088757396454:7.0260355029585799] [-1.1594498217014775:12.340295466123282] [-3.2476190476190476:6.8476190476190473] [-0.73762376237623761:22.28217821782178] [-2.3154899894625922:16.483245521601685] [-4.8684210526315788:19.868421052631579] [-4.5081967213114762:12.049180327868852] [-3.48141592920354:5.9876106194690255] [-4.1435897435897449:6.6769230769230763] [-1.8705281090289609:27.022146507666093] [-1.9276869737493807:11.356116889549282] [-3.8894862604540026:4.652927120669057] [-20.930921052631575:0.94407894736842257] [-8.2708333333333321:6.8611111111111081] [-3.109766637856525:5.5159896283491792] [-3.7849264705882351:7.9797794117647065] [-3.4700193423597683:15.292069632495165] [-7.4516971279373365:6.3864229765013052] [-265.73684210526318:7.9473684210526319] [-9.0000000000000018:5.6666666666666794] [-3.5065088757396454:7.0260355029585799] [-1.1594498217014775:12.340295466123282] [-3.2476190476190476:6.8476190476190473] [-0.73762376237623761:22.28217821782178] [-2.3154899894625922:16.483245521601685] [-4.1435897435897449:6.6769230769230763] [-1.8705281090289609:27.022146507666093] [-1.9276869737493807:11.356116889549282] [0:5.2662293132208955] [0:13.956054891839754] [0:2.6738048121790365] [0:7.3911498190047116] [0:139.94465610131115] [0:5.155872835064697] [0:3.6819761387228516] [0:4.5295204553634107] [-3.8894862604540026:8.2371565113500598] [-8.8333333333333321:18.25] [-265.73684210526318:7.9473684210526319] [-9.0000000000000018:5.6666666666666794] [-1.1594498217014775:12.340295466123282] [-0.73762376237623761:22.28217821782178] [-1.8705281090289609:27.022146507666093] [-1.937592867756315:11.356116889549282] [-1.3042704626334518:18.505931198102015] [-3.8894862604540026:8.2371565113500598] [-8.8333333333333321:18.25] [-265.73684210526318:7.9473684210526319] [-9.0000000000000018:5.6666666666666794] [-3.5065088757396454:7.0260355029585799] [-1.1594498217014775:12.340295466123282] [-3.2476190476190476:6.8476190476190473] [-0.73762376237623761:22.28217821782178] [-1.8705281090289609:27.022146507666093] [-1.937592867756315:11.356116889549282]
tree_sizes=3352 3371 3353 3379 3382 3401 3404 3398 3414 3417

Tree=0
num_leaves=31
num_cat=0
split_feature=72 61 81 55 72 5 74 34 65 33 25 60 42 72 29 65 23 29 18 65 72 52 37 2 72 38 36 44 60 19
split_gain=4026.72 1146.51 707.73 784.786 732.635 585.439 563.147 511.603 507.839 496.565 424.083 410.265 381.371 408.42 378.083 361.498 701.881 323.341 349.044 370.826 336.96 313.572 307.519 355.672 329.02 308.824 299.328 295.983 295.624 286.469
threshold=1.9282325029655996 0.15811388300841589 1.2725724020442932 2.660723130262507 3.8262158956109142 0.25998573466476488 1.506944444444446 5.9016393442622954 1.9097222222222225 0.59210526315789502 0.3550913838120105 1.0643641170188036 -0.85771391529818475 10.587781731909848 -0.36984207845135003 2.0069444444444451 1.320970042796006 2.8904737646459506 -0.79346210995542332 0.41666666666666774 2.5806642941874265 4.2224446786090626 -1.1465076660988072 1.3263888888888868 1.3944246737841048 -1.100544824170381 1.4717948717948717 1.0379593810444876 0.1271173398788546 1.4719235364396659
decision_type=2 2 2 2 2 2 2 2 2 2 2 2 2 2 2 2 2 2 2 2 2 2 2 2 2 2 2 2 2 2
left_child=6 7 3 5 11 8 28 15 12 -6 -9 -4 13 14 -3 17 -17 21 26 -20 -21 -2 23 -8 -24 -26 -19 -16 -1 -30
right_child=1 2 4 -5 9 -7 22 10 -10 -11 -12 -13 -14 -15 27 16 -18 18 19 20 -22 -23 24 -25 25 -27 -28 -29 29 -31
leaf_value=-3.6483771661657505 -3.4610228669945089 -0.70847554276716762 -3.1854524248996734 0.16546546059487888 -2.4684956189824021 -0.60859657095436237 -3.1424919391882051 -1.1783922330669996 -2.1057345122142732 -0.29231316021381293 -3.7048446971513291 -0.57882495435631842 -3.2867710902020297 -0.010457728393596266 -3.165765782322393 -1.3231153693075086 -3.2625235362660483 -3.4269234890152984 -3.1027964503908079 -3.0137178832680789 -0.34570757910745264 -0.99562758672898299 -3.5403158453938719 -1.1561038615623649 -0.75603695791614145 -3.177075130185937 -1.065996862324377 -0.84418066751283138 -3.6093711995727404 -3.4350491596739401
leaf_weight=3830.5199724920094 311.29288870096207 0.80096941813826461 5.9685140512883645 0.7234562486410131 1.860316067934036 0.90432031080126662 6.0460272207856169 1.8603160679340356 4.3148997686803332 2.4029082544147968 1.0335089266300199 0.67178080230951298 79.890240028500557 0.56842990964651186 7.2345624864101383 2.3512328080832949 9.0432031080126745 9.7149839103221858 2.3253950849175444 0.72345624864101443 1.3693993277847765 0.51675446331500907 270.46928609907627 1.0593466497957704 0.54259218648076313 18.189757108688354 0.56842990964651186 0.59426763281226147 399.06363429501653 123.42680356279016
leaf_count=148253 12048 31 231 28 72 35 234 72 167 93 40 26 3092 22 280 91 350 376 90 28 53 20 10468 41 21 704 22 23 15445 4777
internal_value=-3.60212 -3.31535 -3.02801 -3.11556 -2.26494 -3.14073 -3.62967 -3.40467 -3.16525 -1.24192 -2.0807 -2.92175 -3.21657 -2.60681 -2.77782 -3.41601 -2.86233 -3.43533 -2.97704 -2.23367 -1.26798 -3.45694 -3.49628 -2.84634 -3.51225 -3.10695 -3.29642 -2.98954 -3.63875 -3.56819
internal_weight=0 446.734 105.935 95.0311 10.9035 94.3077 4649.32 340.8 93.4034 4.26322 2.89382 6.64029 89.0885 9.19823 8.6298 337.906 11.3944 326.511 14.7017 4.41825 2.09286 311.81 296.307 7.10537 289.202 18.7323 10.2834 7.82883 4353.01 522.49
internal_count=197233 17290 4100 3678 422 3650 179943 13190 3615 165 112 257 3448 356 334 13078 441 12637 569 171 81 12068 11468 275 11193 725 398 303 168475 20222
is_linear=0
shrinkage=1


Tree=1
num_leaves=31
num_cat=0
split_feature=72 64 7 63 3 8 32 58 40 32 39 18 49 31 81 70 30 39 26 7 79 4 49 72 79 32 3 21 48 41
split_gain=1946.09 406.045 275.484 295.705 286.941 403.384 396.755 270.794 277.503 281.164 368.043 218.296 324.408 200.706 262.632 244.976 320.984 317.6 194.048 190.499 237.601 199.886 212.558 167.097 277.475 263.628 195.368 154.578 307.025 149.175
threshold=1.6909845788849351 1.1433691756272404 -2.7499999999999929 1.0526364924924871 -1.8576058772687982 -1.1751479289940832 -0.37133825079030564 1.0000000180025095e-35 -0.63251879699247937 -0.076290832455216104 1.5846774193548392 0.45220406141654296 -1.0000000180025095e-35 0.10148514851485148 0.31856899488926754 -1.4872231686541737 0.20476190476190465 0.4354838709677421 2.3421052631578951 2.0833333333333339 -1.0000000180025095e-35 -1.2061887254901957 -1.0040753948038714 -0.80011862396204014 -3.1928571428571422 0.029083245521601592 -3.0622299049265336 3.1931719965427834 -0.79644970414201188 1.402777777777779
decision_type=2 2 2 2 2 2 2 2 2 2 2 2 2 2 2 2 2 2 2 2 2 2 2 2 2 2 2 2 2 2
left_child=1 2 3 -1 5 -5 -7 8 9 10 -3 27 -13 -4 15 16 -15 -18 -11 21 -21 -2 -23 24 25 -9 -25 -6 -29 -24
right_child=19 7 13 4 11 6 -8 23 -10 18 -12 12 -14 14 -16 -17 17 -19 -20 20 -22 22 29 26 -26 -27 -28 28 -30 -31
leaf_value=0.039195794873784877 0.1851180536135667 0.6792616003677362 -0.053930849491348111 0.29352653670057732 -0.025683355037795653 0.035269100793341272 2.8089342565539153 2.6439671007407792 0.16088664206787343 0.20935239548547979 3.3298752506078233 -0.1028397770453303 2.846533685430185 0.2213212531183304 0.14201326901491892 -0.032171864669478994 3.9136922227377839 0.46992470719320756 2.0080224568794565 -0.10318859019549718 2.4953858691938651 1.555955675255738 0.039387394980319429 1.6137695245671606 0.12182651606082127 0.42972560209183719 0.0062212355343627982 -0.10313537898936834 2.8747298005480291 0.27670993645137915
leaf_weight=103.58128214068711 472.74647748284042 1.1510387919843199 3195.8599253185093 3.026953985914588 11.673549119383095 0.72513108700513873 1.7857895065099025 0.83735405281186048 15.551890332251785 3.8460531774908331 0.96138400584459294 0.74584514275193214 0.7458921018987883 3.0865084379911414 120.16446891054511 434.30116144195199 0.54776580631732918 0.52396859787404537 0.71062238886952389 0.64826869033277035 0.76957620866596588 0.96435526385903259 216.49888673983514 0.75728173181414504 111.95980509743094 1.502562630921602 448.49460889212787 0.87972790002822876 0.57092567905783542 30.178063932806253
leaf_count=4036 12952 46 127334 111 448 29 65 32 605 153 38 28 27 123 4786 17422 22 21 27 22 25 33 6636 28 4329 59 17172 30 21 573
internal_value=0 -0.0277046 -0.0394259 0.107386 0.457851 1.07085 2.00792 0.0498981 0.392303 0.931951 1.88558 0.22559 1.37189 -0.0442643 0.0110375 -0.0248578 0.739044 2.23004 0.489858 0.149273 1.30726 0.146993 0.0742138 0.036397 0.144351 1.22211 0.008931 0.095298 1.06885 0.0684211
internal_weight=0 4463.99 3878.22 123.735 20.1538 5.53787 2.51092 585.773 22.221 6.6691 2.11242 14.6159 1.49174 3754.48 558.624 438.459 4.15824 1.07173 4.55668 721.806 1.41784 720.388 247.641 563.552 114.3 2.33992 449.252 13.1242 1.45065 246.677
internal_count=197233 176992 154503 4795 759 205 94 22489 869 264 84 554 55 149708 22374 17588 166 43 180 20241 47 20194 7242 21620 4420 91 17200 499 51 7209
is_linear=0
shrinkage=0.1


Tree=2
num_leaves=31
num_cat=0
split_feature=72 39 75 9 30 12 35 19 61 17 9 65 30 36 7 15 2 11 35 69 72 19 39 74 11 1 72 7 44 12
split_gain=1423.7 345.368 259.305 205.585 197.868 266.341 221.555 502.135 169.878 160.388 407.098 161.223 179.89 171.212 156.691 212.935 185.863 145.779 414.71 139.387 134.739 354.098 200.645 181.244 133.477 262.349 136.635 125.658 121.734 173.401
threshold=1.631672597864769 0.42569361476171524 1.6052631578947374 5.1828833418237403 0.34761904761904744 1.9521601685985248 2.15575221238938 2.248506571087217 0.096225044864935674 4.4838160136286218 0.19052470708099842 1.5763888888888913 1.3 4.8307692307692314 -2.5833333333333224 -2.499115044247787 1.1111111111111123 1.5445544554455448 -0.90619469026548671 -0.54207920792079201 11.536773428232506 4.3243727598566322 1.8515863533784687 1.8750000000000022 -0.14603960396039603 -0.78289473684210364 1.0385527876631082 3.9166666666666727 -0.27611218568665391 -0.82444678609062161
decision_type=2 2 2 2 2 2 2 2 2 2 2 2 2 2 2 2 2 2 2 2 2 2 2 2 2 2 2 2 2 2
left_child=1 14 3 9 19 6 24 -8 20 11 -11 13 17 -3 15 -1 -17 -13 -19 -4 -2 23 -23 -22 -6 26 -26 -16 -10 -30
right_child=8 2 4 -5 5 -7 7 -9 28 10 -12 12 -14 -15 27 16 -18 18 -20 -21 21 22 -24 -25 25 -27 -28 -29 29 -31
leaf_value=1.5414151219693331 0.072729310849593803 -0.014550875805089531 1.6184188758911091 1.4699883449334923 0.1454184662289672 2.1543449541301052 3.0991435202709599 -0.10296599633766311 0.087189012841237423 0.059557822737458965 2.1997199943630408 0.071981582340484518 1.4569766725211497 1.6263273508194009 -0.051809238013114059 0.044264147839775558 1.515978340894983 3.0452153882876853 0.15827237498617278 0.061228365384688524 0.15048851655563289 2.4794823584041423 0.3237959074471965 1.6220532704515032 0.14168790174444346 2.1545241626229257 1.7935815932227204 1.5688144983820766 0.30410232278276245 0.10281358815015106
leaf_weight=0.97284318134188552 544.17774588055909 1168.2394797094166 0.58069187588989635 0.95380951091647048 19.450172394514091 0.84175449796020885 0.90571670979261298 1.0662281326949594 95.044732540845871 3.6940142586827269 1.1704120915383098 156.27003057859838 0.96157778613269229 0.63623669184744258 2822.1964923553169 111.6314798463136 0.86476194858550925 0.63518788665533099 2.2969151884317389 56.937512699514627 22.81132039800287 1.1226122379302967 0.70163264870643605 0.86883942782878776 3.6661037877202034 1.0183269158005739 0.57993249222636212 0.47851868346333404 111.64992138929665 69.397947447374463
leaf_count=33 15226 46093 19 38 688 32 35 39 1908 138 31 5172 35 26 117444 3856 31 21 83 2025 551 32 20 22 126 33 20 17 2156 1283
internal_value=0 -0.0273218 0.0131688 0.00238219 0.182472 0.402954 0.347711 1.36777 0.114458 0.00133277 0.574495 -0.000765061 0.0933257 -0.0136577 -0.0469028 0.0683163 0.0555773 0.0850892 0.783677 0.0769494 0.0832578 0.307901 1.65037 0.204481 0.266322 0.713022 0.367307 -0.0515345 0.178835 0.226946
internal_weight=0 4356.05 1419.9 1334.86 85.0464 27.5282 26.6865 1.97194 845.775 1333.9 4.86443 1329.04 160.164 1168.88 2936.14 113.469 112.496 159.202 2.9321 57.5182 569.682 25.5044 1.82424 23.6802 24.7145 5.26436 4.24604 2822.68 276.093 181.048
internal_count=197233 176035 54654 51637 3017 973 941 74 21198 51599 169 51430 5311 46119 121381 3920 3887 5276 104 2044 15851 625 52 573 867 179 146 117461 5347 3439
is_linear=0
shrinkage=0.1


Tree=3
num_leaves=31
num_cat=0
split_feature=72 74 60 30 0 58 45 1 81 79 45 32 19 79 1 37 11 20 63 10 6 19 1 1 73 18 13 78 20 72
split_gain=1067.9 278.876 234.84 200.148 263.778 171.592 181.918 307.822 159.246 215.516 150.217 146.682 143.805 164.842 233.951 393.573 168.696 139.653 123.9 264.579 237.568 128.654 121.993 126.522 119.572 125.441 338.042 118.047 105.556 126.227
threshold=1.631672597864769 1.3125000000000007 0.049930699897395833 3.5619047619047621 -1.1266427718040621 1.0000000180025095e-35 1.5313315926892954 -3.4144736842105243 1.7666098807495743 1.5857142857142854 4.1540469973890346 -1.0878819810326659 1.0537634408602155 0.16904761904761886 0.20394736842105413 -0.58432708688245305 0.051980198019801922 -1.0486111111111096 0.17568209223157702 -3.1452380952380947 2.6315789473684217 3.2640382317801682 -1.111842105263156 -3.4144736842105243 1.1433691756272404 -1.8088162456661709 -0.78947368421052577 -0.57361181864493116 2.1319444444444451 13.434756820877819
decision_type=2 2 2 2 2 2 2 2 2 2 2 2 2 2 2 2 2 2 2 2 2 2 2 2 2 2 2 2 2 2
left_child=1 2 8 5 -5 6 17 -8 24 11 12 22 -7 -14 -15 -16 -17 -4 28 -20 21 27 23 -10 25 26 -1 -21 -2 -30
right_child=18 -3 3 4 -6 10 7 -9 9 -11 -12 -13 13 14 15 16 -18 -19 19 20 -22 -23 -24 -25 -26 -27 -28 -29 29 -31
leaf_value=2.1936233383734915 0.054789005674564767 0.051665279029842817 1.5127445659354266 3.0432101884473379 -0.10283673107247278 -0.029589246102406659 0.11393283742352751 2.8756916577267764 1.2465964360651318 2.01582741033143 1.6258097807517033 0.039891490199911318 0.020851622611268071 0.15096564795224443 2.9369777072951524 0.29428676711231111 1.9901727888754053 0.14888778573087896 0.11654670273690469 1.2783798669356568 1.6844110099917033 1.2205440850651412 1.8524015327797629 -0.10414792289043021 0.0013933921545176977 -0.056727450574834797 -0.10236815684639565 0.27014773200650127 0.13252098445343524 0.8607849092370361
leaf_weight=0.91462435759604011 587.71989355795085 416.34316037967801 0.8047306090593328 0.50861742533743382 0.55986788682639488 307.96905821189284 0.88968700170516968 0.73864123411476501 1.1041111387312417 0.56593512743711372 0.57857104763388534 115.27322993986309 144.73964538797736 53.648176945745945 0.75655016861855973 4.7721948884427539 0.66875864006578911 11.198362667113541 137.5478224940598 1.2294381614774526 1.509523008018731 1.7336181700229634 0.71607013419270416 1.8644648138433695 416.93974295258522 2784.5115073043853 2.1454551238566628 20.945831611752514 177.82260584831238 2.4122751094400874
leaf_count=40 14492 14340 32 21 21 12853 26 29 18 19 24 4434 4741 1695 26 168 22 341 2501 32 40 36 28 65 16002 120995 95 420 3641 36
internal_value=0 -0.0260834 -0.0344871 0.0274762 1.39474 0.0247029 0.374878 1.36672 -0.0443264 0.0690063 0.0154004 0.0597444 0.0135826 0.0785706 0.218167 0.799888 0.502732 0.240326 0.0921257 0.171321 0.467723 0.390905 0.680839 0.398238 -0.0485536 -0.0560242 0.583879 0.326046 0.0753199 0.142268
internal_weight=0 4268.21 3851.87 527.833 1.06849 526.764 13.6314 1.62833 3324.04 119.524 513.133 118.958 512.554 204.585 59.8457 6.1975 5.44095 12.0031 930.921 162.966 25.4184 23.9089 3.68465 2.96858 3204.51 2787.57 3.06008 22.1753 767.955 180.235
internal_count=197233 176035 161695 19999 42 19957 428 55 141696 4564 19529 4545 19505 6652 1911 216 190 373 21198 3029 528 488 111 83 137132 121130 135 452 18169 3677
is_linear=0
shrinkage=0.1


Tree=4
num_leaves=31
num_cat=0
split_feature=72 74 31 81 44 29 4 62 60 43 75 44 72 51 58 13 22 21 16 56 47 81 37 30 34 30 4 72 75 76
split_gain=830.935 269.653 210.861 211.003 156.126 187.061 134.801 128.543 122.675 198.296 159.001 145.752 115.785 195.328 218.582 111.93 102.734 150.848 100.051 98.2285 176.189 97.8489 118.696 296.417 172.173 230.649 97.5709 184.02 95.0768 149.273
threshold=1.9875444839857657 1.4791666666666687 0.081683168316831659 0.31856899488926754 1.7572533849129595 3.0942435048395316 -3.5091911764705874 0.98698188281890786 0.95402838649996413 -0.58943014705882313 1.0526315789473688 0.49274661508704048 -0.74080664294187415 0.14777227722772276 0.3159401772883717 -3.4210526315789465 -1.2625612745098034 -0.788029386343993 5.18974358974359 1.0000000180025095e-35 -0.099999999999991165 0.62521294718909715 0.91482112436115837 0.93095238095238109 0.06557377049180263 -0.27142857142857152 -2.2990196078431366 1.0978647686832743 -1.0526315789473681 1.9166666666666705
decision_type=2 2 2 2 2 2 2 2 2 2 2 2 2 2 2 2 2 2 2 2 2 2 2 2 2 2 2 2 2 2
left_child=1 2 4 -4 7 -6 -5 15 -9 -10 -11 -12 13 14 -8 -1 17 -3 -17 20 -14 22 26 24 25 -24 27 -21 29 -2
right_child=28 16 3 6 5 -7 12 8 9 10 11 -13 19 -15 -16 18 -18 -19 -20 21 -22 -23 23 -25 -26 -27 -28 -29 -30 -31
leaf_value=1.4047211510256248 -0.024607811718808537 2.1410811771330471 -0.015823632923748422 1.238885543916147 0.06431094481579544 1.5679586937639332 2.7765823341394644 0.039573954757564263 1.8467172880995546 0.015345445465594899 0.30345064448943199 2.1260841281169536 -0.10279423759786784 0.23364283793727086 0.3577510392349782 -0.04788240449000198 0.05390885733750287 -0.10335694567484865 1.4419960363400888 0.13934184432178875 1.654351320286348 0.019078384538896868 -0.10270170881528365 2.1748596470679504 0.10933728206586234 2.7066688104644681 0.071220633781656287 2.0272689139144155 0.09740035083758676 1.1363598552473455
leaf_weight=0.53070475719869037 90.670010592788458 0.57931932248175144 502.27843417786062 1.043402237817644 109.05491622723639 0.83367869630455871 0.65986580029130226 19.517123112455014 0.97360475547611702 4.752287693321704 0.97311206907033898 0.79898686707019806 1.2143443711102011 21.038643753156066 0.86115940660238266 3119.9968422017992 385.27325698547065 0.61984934285282978 0.45079880207776923 1.6515792664140456 1.0765130203217257 129.43063934147358 0.53733507357537746 0.96595310233533371 6.377725837752223 0.64067482575773993 35.797844341024756 0.75108039006590832 749.33450075984001 1.1211891323328007
leaf_count=21 2117 21 20847 39 4133 23 25 728 32 154 26 18 46 617 28 136077 11812 20 7 62 29 4197 21 38 191 24 1217 27 14615 21
internal_value=0 -0.0229468 -0.0307238 0.0188909 -0.0414501 0.0757185 0.10519 -0.0455402 0.171655 0.515459 0.316801 1.12522 0.0993047 0.312761 1.40711 -0.0474202 0.0567853 0.980933 -0.0476672 0.0723186 0.722918 0.0638576 0.187906 0.525371 0.314494 1.42521 0.112625 0.729515 0.0856332 -0.0104271
internal_weight=0 4348.68 3962.21 704.325 3257.88 109.889 202.047 3147.99 27.0151 7.49799 6.52439 1.7721 201.003 22.5597 1.52103 3120.98 386.472 1.19917 3120.45 178.444 2.29086 176.153 46.7222 8.52169 7.55574 1.17801 38.2005 2.40266 841.126 91.7912
internal_count=197233 180480 168627 27408 141219 4156 6561 137063 958 230 198 44 6522 670 53 136105 11853 41 136084 5852 75 5777 1580 274 236 45 1306 89 16753 2138
is_linear=0
shrinkage=0.1


Tree=5
num_leaves=31
num_cat=0
split_feature=72 39 23 7 63 32 19 39 74 9 20 4 62 57 1 32 72 31 81 37 2 10 49 44 2 41 20 29 50 45
split_gain=668.798 220.126 142.357 127.215 119.869 270.217 232.044 297.572 113.506 110.064 139.291 97.9746 96.8821 106.735 93.5073 128.528 140.88 90.1043 95.8818 95.3761 88.5688 190.106 129.266 86.2131 200.269 190.578 85.4781 137.642 131.333 469.985
threshold=1.4537366548042707 0.54682729324306412 0.50071326676176919 -2.9166666666666634 0.75062028855120755 1.0000000180025095e-35 2.7861409796893675 2.0375301056304647 1.1388888888888895 1.3112582781456956 -1.4652777777777772 -1.2674632352941171 1.2093787625695165 0.64029830353756378 -2.9210526315789456 2.6845100105374082 0.7419928825622778 0.10148514851485148 0.028960817717206124 -1.8279386712095398 -1.8124999999999993 1.2047619047619051 -0.73040131318277002 2.5309477756286269 -2.6180555555555522 -0.29166666666666646 1.2569444444444462 -0.52266938359653592 0.25738095238095238 0.90992167101827681
decision_type=2 2 2 2 2 2 2 2 2 2 2 2 2 2 2 2 2 2 2 2 2 2 2 2 2 2 2 2 2 2
left_child=1 3 9 -1 12 6 -6 -8 11 14 -11 20 -4 -14 15 -3 -17 -5 19 -19 22 -22 -2 -16 25 -25 27 -24 29 -29
right_child=8 2 4 17 5 -7 7 -9 -10 10 -12 -13 13 -15 23 16 -18 18 -20 -21 21 -23 26 24 -26 -27 -28 28 -30 -31
leaf_value=0.073805634969642639 0.96115537356645353 0.11046016315971077 -0.037257222836212432 -0.052731080342753124 0.36167019900688685 0.024987997452104182 3.1528492104849803 0.48809779057664415 0.12209181915242232 1.4097582924115153 0.16985851602246627 0.0024677561556035021 0.15349413377630444 1.5440715546968928 0.011878383354126327 0.39046564078691659 1.7857967644510979 1.3849782657693688 0.059063548824534365 -0.039931131325014163 0.041374835192923502 1.4441190032954925 1.2835703023205316 0.33721209268245461 0.14239136043842601 2.7978764989443858 0.0564947679404059 0.23581378252591625 0.047184785333018231 1.9241752010684849
leaf_weight=94.092464461922646 1.8540920261293639 51.866846876218915 617.00211739726365 2230.0446305423975 8.5758954361081106 70.542074758559465 0.73714436776935943 0.97115920670330524 244.57625201530755 0.92407317273318668 46.439734164625406 335.84208387881517 1.836274549365043 0.78920376300811756 431.01425848156214 3.7625447232276192 0.89588325656950463 0.47050616517662902 158.03716584481299 291.5318318195641 399.17967808246613 0.96847997419536014 1.1529135238379229 0.6799686960875988 10.155412981286643 0.58601111732423194 92.041372450068593 37.586587559431791 36.894679794088006 1.7243835814297188
leaf_count=2680 48 1711 24476 104871 198 2250 27 20 4053 31 1258 8584 36 27 16136 99 28 18 5357 12913 8739 25 35 21 348 21 1579 741 866 37
internal_value=0 -0.0247962 0.0101052 -0.0404817 -0.019737 0.0948018 0.573673 1.63796 0.0616313 0.0483665 0.194049 0.0453323 -0.0346778 0.571494 0.0345376 0.155651 0.658808 -0.0444941 -0.00367816 -0.0376352 0.070526 0.0447699 0.130707 0.0190642 0.290238 1.47623 0.121618 0.199101 0.182694 0.309874
internal_weight=0 4020.96 1246.78 2774.18 700.454 80.8263 10.2842 1.7083 1151.82 546.325 47.3638 907.244 619.628 2.62548 498.961 56.5253 4.65843 2680.08 450.04 292.002 571.402 400.148 171.254 442.436 11.4214 1.26598 169.4 77.3586 76.2057 39.311
internal_count=197233 172526 46687 125839 27034 2495 245 47 24707 19653 1289 20654 24539 63 18364 1838 127 123159 18288 12931 12070 8764 3306 16526 390 42 3258 1679 1644 778
is_linear=0
shrinkage=0.1


Tree=6
num_leaves=31
num_cat=0
split_feature=72 74 60 80 72 44 59 71 12 2 24 12 20 40 60 36 34 64 4 59 39 56 13 39 72 49 14 4 5 41
split_gain=531.167 226.152 166.442 129.798 136.964 103.21 101.408 94.4263 124.433 197.952 107.244 104.32 113.308 92.5199 114.265 123.799 101.997 137.936 254.765 126.261 114.133 146.038 291.852 100.912 186.781 88.3915 337.841 86.929 133.756 84.0631
threshold=2.1061684460260981 1.3125000000000007 0.22191422176620343 1.0000000180025095e-35 -0.80011862396204014 1.7572533849129595 0.47677886431613609 -0.19910846953937586 1.2303477344573237 -1.8124999999999993 -0.83462282398452625 -1.1194942044257112 -1.0000000180025095e-35 0.17996162280701911 1.2574031557612739 -1.0000000180025095e-35 -0.50000000000000056 -0.5591397849462364 -1.2879901960784308 0.47904842135171805 1.8962706946577919 0.25686205490397679 -1.0000000180025095e-35 -1.5109518120270806 0.089561091340450885 -1.1467142129393784 -1.0737704918032789 -1.1449142156862739 0.47396576319543537 0.90972222222222143
decision_type=2 2 2 2 2 2 2 2 2 2 2 2 2 2 2 2 2 2 2 2 2 2 2 2 2 2 2 2 2 2
left_child=1 2 3 5 7 25 -4 8 10 -10 -5 12 -12 14 16 -16 17 18 19 -3 -19 22 -22 24 -18 26 29 28 -6 -1
right_child=-2 13 6 4 27 -7 -8 -9 9 -11 11 -13 -14 -15 15 -17 23 20 -20 -21 21 -23 -24 -25 -26 -27 -28 -29 -30 -31
leaf_value=-0.10214893293693748 0.064434806467234318 3.0939087161369931 -0.015607646024054778 1.327259387107329 0.016526767804442431 0.052592211781144253 0.07871916863721623 0.056923051622825842 2.3565140494326182 0.32619549998861891 0.34777612243736317 0.072462927164912427 1.7231788837196189 -0.0047750349911751012 1.1569587178056118 0.070383892563141662 -0.10255829599910865 0.08209218489561082 0.11982354679162373 1.025657342228399 2.3913568734278954 0.26885562835637555 -0.10387237530317638 0.042287797418813979 2.5696895983254624 -0.051625482097158927 3.0020543024410449 -0.054302942219152175 1.0985714672379496 1.4833708926190934
leaf_weight=2.8811172693967828 893.19588478282094 0.5630908962339165 248.01328787021339 0.83943022042513504 332.24460372887552 100.23460408858955 210.88270088657737 61.26971379481256 0.73149108514189753 1.3979077581316222 2.3254096265882258 16.477843556553122 0.80676289647818222 218.75233451835811 2.0472202505916357 2.1495742201805106 0.62639551796018966 32.752654137089849 1.7952612843364466 0.62032809853553772 1.0419764965772627 6.3792845141142607 0.85206635855138113 221.13533578813076 0.44909260421991348 2491.5232451874763 0.45099986717104812 294.64169202931225 1.1463568881154049 0.37830450572073449
leaf_count=141 15899 22 9530 39 12027 3456 6961 2230 25 54 56 549 23 6997 33 65 26 920 69 24 30 124 24 6588 20 118747 22 12478 38 16
internal_value=0 -0.0203887 -0.0286968 -0.0365274 0.00129921 -0.0469024 0.0277396 0.121344 0.296156 1.02365 0.220402 0.173021 0.702043 0.0435784 0.0826943 0.600421 0.0745325 0.213627 0.870691 2.00977 0.165921 0.497785 1.26884 0.0469874 1.01329 -0.0508992 0.436821 -0.0147279 0.0202474 0.0818743
internal_weight=0 4255.41 3766.25 3307.35 711.881 2595.47 458.896 83.8486 22.5788 2.1294 20.4494 19.61 3.13217 489.165 270.412 4.19679 266.215 44.0047 2.97868 1.18342 41.026 8.27333 1.89404 222.211 1.07549 2495.23 3.71042 628.033 333.391 3.25942
internal_count=197233 181334 166392 149901 27519 122382 16491 2976 746 79 667 628 79 14942 7945 98 7847 1213 115 46 1098 178 54 6634 46 118926 179 24543 12065 157
is_linear=0
shrinkage=0.1


Tree=7
num_leaves=31
num_cat=0
split_feature=72 19 72 26 30 53 29 13 58 38 36 9 24 3 8 41 56 8 20 14 73 3 60 34 21 78 29 44 37 27
split_gain=438.632 177.957 184.377 163.975 142.673 129.007 123.546 205.432 121.029 116.165 156.69 110.479 120.008 104.859 144.886 308.952 173.723 105.681 94.0047 174.662 107.84 93.9939 93.3878 91.6758 126.981 103.795 147.33 97.1921 100.908 95.3964
threshold=1.4537366548042707 0.96415770609319018 -0.74080664294187415 0.52631578947368418 0.34761904761904744 -0.39871794871794891 -0.77738155883851245 -0.78947368421052577 1.0000000180025095e-35 -1.1599801882119858 -1.0000000180025095e-35 1.0000000180025095e-35 0.47098646034816233 -2.1709161624891959 -0.79053254437869847 1.0000000180025095e-35 0.53117944560640928 0.037869822485206726 -0.35416666666666524 -1.4836065573770494 0.75507765830346496 -0.7124027657735521 0.20758174677542521 2.3360655737704912 3.1499567847882459 1.8206826286296487 2.4319918492103922 0.65111218568665374 1.0170357751277685 -1.0000000180025095e-35
decision_type=2 2 2 2 2 2 2 2 2 2 2 2 2 2 2 2 2 2 2 2 2 2 2 2 2 2 2 2 2 2
left_child=1 -1 11 8 13 -6 7 -7 -4 10 -8 -3 -13 14 -5 16 -16 -17 19 20 -15 -9 -2 24 25 29 -27 28 -26 -24
right_child=22 2 3 4 5 6 9 21 -10 -11 -12 12 -14 18 15 17 -18 -19 -20 -21 -22 -23 23 -25 27 26 -28 -29 -30 -31
leaf_value=-0.042241085131725774 0.033992440019061425 0.038105772945554749 0.1402556228179575 -0.013150384726312131 -0.013658739902280307 -0.10350046543018475 -0.10257866138933727 2.6846664136748855 -0.045355691548129205 0.14129618334039726 1.9574810398420155 0.35597911941165322 0.082272989548524869 1.664168957877298 2.5883106527102058 -0.11055527335529465 0.73451567928996508 0.87101126963335895 -0.036456196218953442 0.054876589412528737 0.43969016897293756 0.97883954178248289 0.39883284400103863 -0.030247439081919972 1.2337164062260808 0.88374095499371708 0.10955559243450214 0.15910008937503359 0.43688102853669375 0.065815978404235934
leaf_weight=2089.6001629028469 1062.0386488530785 265.26358703710139 36.505576927214861 10.367478284984829 58.877146368846297 1.1559096649289133 0.67167186550796032 0.57395876944065094 932.37475874461234 108.56483529694378 0.81992862932383903 24.823583507910371 45.165991639718413 1.1254214718937903 0.96611153520643656 3.8440103884786367 1.0603241380304096 1.5348369758576152 272.03554635494947 14.156649280339478 1.9928548913449047 0.7388273924589146 9.2662212364375574 37.6289092451334 2.2309886217117292 4.1092271059751493 6.1176666226238012 7.3782019466161728 5.5247295387089252 120.0019021704793
leaf_count=102151 21966 10040 882 294 1777 37 28 22 41232 3090 19 642 1178 23 37 130 34 33 10348 466 38 25 125 605 34 52 93 62 33 1737
internal_value=0 -0.0224406 0.000769676 -0.0147086 0.0331875 0.106277 0.169032 0.868655 -0.0383622 0.153339 1.02983 0.0675928 0.17935 -0.0076084 0.228156 0.565989 1.61832 0.169532 -0.0220918 0.204111 0.881619 1.72464 0.045602 0.109734 0.143798 0.11395 0.420628 0.418922 0.666097 0.0896874
internal_weight=0 3872.22 1782.62 1447.37 478.486 171.402 112.525 2.4687 968.88 110.056 1.4916 335.253 69.9896 307.083 17.7728 7.40528 2.02644 5.37885 289.31 17.2749 3.11828 1.31279 1254.3 192.258 154.629 139.495 10.2269 15.1339 7.75572 129.268
internal_count=197233 172526 70375 58515 16401 4998 3221 84 42114 3137 47 11860 1820 11403 528 234 71 163 10875 527 61 47 24707 2741 2136 2007 145 129 67 1862
is_linear=0
shrinkage=0.1


Tree=8
num_leaves=31
num_cat=0
split_feature=72 39 72 58 54 3 7 60 10 24 79 40 38 82 39 72 79 11 59 77 34 74 34 81 37 18 33 58 17 13
split_gain=355.833 154.315 93.1424 112.215 113.933 95.8411 92.104 89.3627 80.6597 391.617 225.167 76.1134 139.671 97.0533 138.504 74.355 69.3813 69.0598 80.5038 271.887 132.564 289.13 77.8434 75.4219 110.385 255.219 98.0542 171.68 111.029 87.7132
threshold=1.5723606168446029 0.41308243727598581 -0.68149466192170804 1.0000000180025095e-35 -1.2563884156729128 -2.0358686257562657 -2.5833333333333224 0.16643566632465182 0.49047619047619068 0.95454545454545447 0.77619047619047621 -1.868421052631577 1.9009410599306589 -1.1599801882119858 -0.30376344086021495 -1.2153024911032027 -3.2357142857142853 0.096534653465346523 1.4936565112764022 -1.1455621301775152 -0.90983606557377106 0.17361111111111113 1.7459016393442617 0.028960817717206124 0.097103918228279296 0.92025755324418046 1.9078947368421055 0.62618164157405565 0.011925042589437718 0.52631578947368485
decision_type=2 2 2 2 2 2 2 2 2 2 2 2 2 2 2 2 2 2 2 2 2 2 2 2 2 2 2 2 2 2
left_child=1 6 15 4 -4 7 8 -5 -1 10 -10 12 13 14 -8 -3 -7 18 -13 -20 21 -21 23 -19 25 29 -26 28 -28 -25
right_child=-2 2 3 5 -6 16 11 -9 9 -11 -12 17 -14 -15 -16 -17 -18 22 19 20 -22 -23 -24 24 26 -27 27 -29 -30 -31
leaf_value=0.032452074920696149 0.041128714229499812 -0.10322102993382959 0.75571724293788189 0.025242109018604714 0.096111661770251974 1.03056512221317 0.014595736703676063 0.26975968703573616 3.2725136554188463 -0.10419994649768703 0.47736359350181551 -0.051916710985173822 1.0441967007423221 0.022114738356938567 1.9972777039346223 0.05494238384858352 -0.029590189548174751 -0.0153468407635105 2.6639261267116545 -0.10186203568265587 0.01461507558022284 3.4567656482662401 -0.090417477447582772 -0.10217821971133678 0.043697022583564178 2.0771924981183223 1.3796003752555599 2.0419055574063001 0.12232602273427447 1.4065880742319421
leaf_weight=119.19685715064406 1229.0671336073428 32.056505396962166 2.7644174620509139 61.595317859202623 49.668397344648838 0.61774111539125343 0.81854056008160114 19.735233534127474 0.65176224149763473 3.1810932718217373 0.51666000671684742 1892.8617503717542 1.560626471415161 24.109491012990475 0.61861461214721802 408.38783467561007 885.60911982879043 177.13737628422678 0.43383242376148601 0.608935646712779 10.845838354900478 0.36526004038751125 77.39542350359261 2.2916452400386333 84.538857756182551 0.91744899190962304 0.80363025143742461 0.60608240589499462 5.5751601308584213 0.46320259571075428
leaf_count=3694 22265 1431 41 2122 1089 26 27 341 24 106 20 99633 26 1071 23 14102 35688 8393 22 34 521 17 3441 110 2730 36 17 22 148 13
internal_value=0 -0.0206416 0.00499959 -0.0115955 0.130888 -0.0193168 -0.0362091 0.0845754 0.0478869 0.470872 2.03654 -0.0407621 0.125806 0.0697026 0.868029 0.0434309 -0.0288512 -0.0427645 -0.0502628 0.205225 0.114983 1.23239 -0.00191853 0.0232323 0.095019 0.632601 0.0734491 0.433542 0.280723 0.151507
internal_weight=0 3865.93 1460.43 1019.99 52.4328 967.557 2405.5 81.3306 123.546 4.34952 1.16842 2281.95 27.1073 25.5466 1.43716 440.444 886.227 2254.84 1905.12 12.2539 11.82 0.974196 349.729 272.333 95.196 3.6723 91.5237 6.98487 6.37879 2.75485
internal_count=197233 174968 54840 39307 1130 38177 120128 2463 3844 150 44 116284 1147 1121 50 15533 35714 115137 100227 594 572 51 14910 11469 3076 159 2917 187 165 123
is_linear=0
shrinkage=0.1


Tree=9
num_leaves=31
num_cat=0
split_feature=72 19 63 72 6 81 34 23 82 43 13 82 51 40 4 40 14 3 34 2 2 29 81 31 2 15 27 9 25 1
split_gain=299.361 159.133 116.401 111.699 80.2459 103.047 121.646 113.11 108.602 107.079 107.527 192.139 152.645 226.373 92.6332 78.2059 76.9664 84.1685 115.345 153.583 131.31 79.7129 115.615 174.966 394.686 101.798 161.745 88.4635 266.828 147.584
threshold=2.1654804270462642 0.96415770609319018 1.4866409400339908 -0.80011862396204014 -0.13157894736842099 -0.77172061328790453 8.8524590163934445 -0.31954350927246761 -1.7444279346210994 -0.022671568627450702 -0.2631578947368417 0.94997523526498284 0.87153465346534664 0.28618421052631748 -2.1204044117647052 -1.1858552631578927 -2.0901639344262297 -1.4470613656006912 -1.1147540983606559 -1.743055555555554 -1.2152777777777777 0.44523688232297504 0.23339011925042594 -0.34405940594059403 -0.13194444444444284 -1.4725663716814159 -0.24999999999999467 -0.16607233825776876 0.63577023498694529 -2.0986842105263137
decision_type=2 2 2 2 2 2 2 2 2 2 2 2 2 2 2 2 2 2 2 2 2 2 2 2 2 2 2 2 2 2
left_child=1 16 3 -3 5 7 -7 -5 -9 10 11 12 15 -14 -6 -10 17 18 -1 -20 -21 -18 27 24 -24 26 -25 28 29 -23
right_child=-2 2 -4 4 14 6 -8 8 9 -11 -12 -13 13 -15 -16 -17 21 -19 19 20 -22 22 23 25 -26 -27 -28 -29 -30 -31
leaf_value=-0.072064898812358821 0.043889315879549987 0.051311371416451014 0.097366040835248233 0.83322728939577684 0.083518314093129903 -0.00099587020101773159 1.4482464112759839 1.1887366628862019 0.9833319639412571 -0.043417566416492956 -0.10275988712181694 1.9014158636091629 3.0515008908328225 -0.10266897400613431 -0.03816131036733774 0.17752806562857387 -0.049907707252387086 -0.021975800102248672 0.14393334779865519 2.1950581933613433 0.69507520007041934 1.3924137572935384 -0.10196940267881789 1.5273471086968369 3.5815837686545766 0.036436728807231415 0.22823243518764036 -0.042886889097909532 2.2818855681365533 -0.057824061995005505
leaf_weight=5.8368378095328799 977.45990089699626 308.01746222749352 120.87754995003343 2.2409976553171864 66.78222194314003 475.18517788499594 0.579891761764883 0.91985126025974651 1.2762516569346249 29.519870379939675 7.7983600590378037 0.74837872385978599 0.47559892013668914 0.43625067733228207 990.73328647948802 21.401564970612529 1614.4887272045016 22.05257685482502 5.6186377555131903 0.69635795056819905 3.6046723518520585 0.80178120918571938 0.78676703758537769 1.0379983149468888 0.46151203475892433 104.80166531726718 12.493750540539621 288.64560077153146 0.62861181236803521 5.6225697230547658
leaf_count=239 15571 10041 2937 36 1857 17543 20 12 21 1081 328 28 21 19 41772 574 85887 1047 143 30 100 27 42 19 25 3628 290 13689 19 187
internal_value=0 -0.0177042 0.0022063 -0.00382832 -0.0144559 0.0168857 0.000770556 0.135173 0.110174 0.0940829 0.220388 0.323931 0.273885 1.54247 -0.0304772 0.222877 -0.0372238 0.104142 0.280655 0.488199 0.93793 -0.0398571 -0.000783061 0.0821883 1.25991 0.0697647 0.327885 -0.034337 0.315571 0.123171
internal_weight=0 4094.57 2026.99 1906.12 1598.1 540.582 475.765 64.8171 62.5761 61.6563 32.1364 24.338 23.5897 0.91185 1057.52 22.6778 2067.58 37.8091 15.7565 9.91967 4.30103 2029.77 415.28 119.582 1.24828 118.333 13.5317 295.699 7.05296 6.42435
internal_count=197233 181662 76290 73353 63312 19683 17563 2120 2084 2072 991 663 635 40 43629 595 105372 1559 512 273 130 103813 17926 4004 67 3937 309 13922 233 214
is_linear=0
shrinkage=0.1


end of trees

feature_importances:
ICULOS=27
HR_roll_mean=10
WBC=9
Temp_cummin=8
HR_cummax=8
Potassium_cummax=8
FiO2_roll_std=8
O2Sat_cummin=7
MAP_cummin=7
BUN_cummax=7
Calcium_cummax=7
Resp_roll_mean=7
Temp=7
SBP_cummin=6
pH_cummin=6
Magnesium_cummin=6
Temp_cummax=6
Glucose_cummax=6
WBC_cummax=6
SBP_roll_std=6
Calcium=6
BUN_cummin=5
O2Sat_roll_mean=5
Creatinine_cummin=4
Glucose_cummin=4
Platelets_cummin=4
Creatinine_cummax=4
Hgb_cummax=4
Temp_roll_mean=4
BUN_roll_mean=4
Calcium_roll_std=4
Temp_lag=4
PaCO2_cummin=3
Calcium_cummin=3
Potassium_cummin=3
SBP_cummax=3
DBP_cummax=3
Resp_cummax=3
Platelets_cummax=3
BaseExcess_roll_mean=3
HR_roll_std=3
MAP_roll_std=3
FiO2=3
Platelets=3
DBP_cummin=2
FiO2_cummin=2
Hct_cummin=2
WBC_cummin=2
BaseExcess_cummax=2
FiO2_cummax=2
pH_cummax=2
Magnesium_cummax=2
Hct_cummax=2
MAP_roll_mean=2
Creatinine_roll_mean=2
pH_roll_std=2
PaCO2_roll_std=2
HR_lag=2
HR=2
BUN=2
HR_cummin=1
Hgb_cummin=1
MAP_cummax=1
SBP_roll_mean=1
pH_roll_mean=1
PaCO2_roll_mean=1
Calcium_roll_mean=1
Glucose_roll_mean=1
Hgb_roll_mean=1
WBC_roll_mean=1
Platelets_roll_mean=1
O2Sat_roll_std=1
Creatinine_lag=1
WBC_lag=1
Platelets_lag=1
pH=1
PaCO2=1
Creatinine=1

parameters:
[boosting: gbdt]
[objective: binary]
[metric: binary_logloss]
[tree_learner: serial]
[device_type: cpu]
[data: ]
[valid: ]
[num_iterations: 10]
[learning_rate: 0.1]
[num_leaves: 31]
[num_threads: 0]
[deterministic: 0]
[force_col_wise: 0]
[force_row_wise: 0]
[histogram_pool_size: -1]
[max_depth: -1]
[min_data_in_leaf: 20]
[min_sum_hessian_in_leaf: 0.001]
[bagging_fraction: 1]
[pos_bagging_fraction: 1]
[neg_bagging_fraction: 1]
[bagging_freq: 0]
[bagging_seed: 3]
[feature_fraction: 1]
[feature_fraction_bynode: 1]
[feature_fraction_seed: 2]
[extra_trees: 0]
[extra_seed: 6]
[early_stopping_round: 0]
[first_metric_only: 0]
[max_delta_step: 0]
[lambda_l1: 0]
[lambda_l2: 0]
[linear_lambda: 0]
[min_gain_to_split: 0]
[drop_rate: 0.1]
[max_drop: 50]
[skip_drop: 0.5]
[xgboost_dart_mode: 0]
[uniform_drop: 0]
[drop_seed: 4]
[top_rate: 0.2]
[other_rate: 0.1]
[min_data_per_group: 100]
[max_cat_threshold: 32]
[cat_l2: 10]
[cat_smooth: 10]
[max_cat_to_onehot: 4]
[top_k: 20]
[monotone_constraints: ]
[monotone_constraints_method: basic]
[monotone_penalty: 0]
[feature_contri: ]
[forcedsplits_filename: ]
[refit_decay_rate: 0.9]
[cegb_tradeoff: 1]
[cegb_penalty_split: 0]
[cegb_penalty_feature_lazy: ]
[cegb_penalty_feature_coupled: ]
[path_smooth: 0]
[interaction_constraints: ]
[verbosity: 1]
[saved_feature_importance_type: 0]
[linear_tree: 0]
[max_bin: 255]
[max_bin_by_feature: ]
[min_data_in_bin: 3]
[bin_construct_sample_cnt: 200000]
[data_random_seed: 1]
[is_enable_sparse: 1]
[enable_bundle: 1]
[use_missing: 1]
[zero_as_missing: 0]
[feature_pre_filter: 1]
[pre_partition: 0]
[two_round: 0]
[header: 0]
[label_column: ]
[weight_column: ]
[group_column: ]
[ignore_column: ]
[categorical_feature: ]
[forcedbins_filename: ]
[precise_float_parser: 0]
[objective_seed: 5]
[num_class: 1]
[is_unbalance: 0]
[scale_pos_weight: 1]
[sigmoid: 1]
[boost_from_average: 1]
[reg_sqrt: 0]
[alpha: 0.9]
[fair_c: 1]
[poisson_max_delta_step: 0.7]
[tweedie_variance_power: 1.5]
[lambdarank_truncation_level: 30]
[lambdarank_norm: 1]
[label_gain: ]
[eval_at: ]
[multi_error_top_k: 1]
[auc_mu_weights: ]
[num_machines: 1]
[local_listen_port: 12400]
[time_out: 120]
[machine_list_filename: ]
[machines: ]
[gpu_platform_id: -1]
[gpu_device_id: -1]
[gpu_use_dp: 0]
[num_gpu: 1]

end of parameters

pandas_categorical:[]
