tree
version=v3
num_class=1
num_tree_per_iteration=1
label_index=0
max_feature_idx=86
objective=binary sigmoid:1
feature_names=HR_cummin O2Sat_cummin Temp_cummin SBP_cummin MAP_cummin DBP_cummin Resp_cummin BaseExcess_cummin FiO2_cummin pH_cummin PaCO2_cummin BUN_cummin Calcium_cummin Creatinine_cummin Glucose_cummin Magnesium_cummin Potassium_cummin Hct_cummin Hgb_cummin WBC_cummin Platelets_cummin HR_cummax O2Sat_cummax Temp_cummax SBP_cummax MAP_cummax DBP_cummax Resp_cummax BaseExcess_cummax FiO2_cummax pH_cummax PaCO2_cummax BUN_cummax Calcium_cummax Creatinine_cummax Glucose_cummax Magnesium_cummax Potassium_cummax Hct_cummax Hgb_cummax WBC_cummax Platelets_cummax HR_roll_std O2Sat_roll_std Temp_roll_std SBP_roll_std MAP_roll_std DBP_roll_std Resp_roll_std BaseExcess_roll_std FiO2_roll_std pH_roll_std PaCO2_roll_std BUN_roll_std Calcium_roll_std Creatinine_roll_std Glucose_roll_std Magnesium_roll_std Potassium_roll_std Hct_roll_std Hgb_roll_std WBC_roll_std Platelets_roll_std ICULOS HR O2Sat Temp SBP MAP DBP Resp BaseExcess FiO2 pH PaCO2 BUN Calcium Creatinine Glucose Magnesium Potassium Hct Hgb WBC Platelets Age Sex
feature_infos=[-3.8894862604540026:4.652927120669057] [-25.371710526315788:0.94407894736842257] [-8.8333333333333321:6.8611111111111081] [-4.3802938634399311:5.5159896283491792] [-3.7849264705882351:7.9797794117647065] [-3.0834522111269616:7.5442225392296729] [-3.4700193423597683:15.292069632495165] [-7.7127937336814618:6.3864229765013052] [-265.73684210526318:7.9473684210526319] [-9.0000000000000018:5.6666666666666794] [-3.5065088757396454:7.0260355029585799] [-1.1594498217014775:12.340295466123282] [-3.2476190476190476:6.8476190476190473] [-0.73762376237623761:22.28217821782178] [-2.3154899894625922:16.483245521601685] [-4.8684210526315788:11.710526315789474] [-4.5081967213114762:9.2622950819672134] [-4.5433628318584072:5.9876106194690255] [-4.1435897435897449:5.4461538461538455] [-1.8705281090289609:27.022146507666093] [-1.937592867756315:11.356116889549282] [-3.5908004778972522:8.2371565113500598] [-20.108552631578945:0.94407894736842257] [-7.6805555555555571:18.25] [-2.8245462402765771:7.3310285220397571] [-3.7849264705882351:13.249387254901961] [-2.940798858773181:16.317403708987161] [-3.4700193423597683:15.485493230174082] [-7.4516971279373365:6.3864229765013052] [-2.5789473684210527:7.9473684210526319] [-9.0000000000000018:5.6666666666666794] [-3.5065088757396454:7.0260355029585799] [-1.1594498217014775:12.340295466123282] [-3.2476190476190476:6.8476190476190473] [-0.73762376237623761:22.28217821782178] [-2.3154899894625922:16.483245521601685] [-4.8684210526315788:19.868421052631579] [-4.5081967213114762:12.049180327868852] [-3.48141592920354:5.9876106194690255] [-4.1435897435897449:6.6769230769230763] [-1.8705281090289609:27.022146507666093] [-1.9276869737493807:11.356116889549282] [0:5.2662293132208955] [0:13.956054891839754] [0:9.1760614034921542] [0:2.6738048121790365] [0:7.3911498190047116] [0:6.2306107351745244] [0:9.0579260920449496] [0:5.3540722335273836] [0:139.94465610131115] [0:5.155872835064697] [0:3.6819761387228516] [0:2.3090157817497086] [0:4.5295204553634107] [0:13.442029899783872] [0:8.4527337526804924] [0:10.690449676496977] [0:5.5296658538463461] [0:2.4626587088036938] [0:3.6217539013894267] [0:7.7224899271103347] [0:1.9943702595085375] [-1.3042704626334518:18.505931198102015] [-3.8894862604540026:8.2371565113500598] [-25.371710526315788:0.94407894736842257] [-8.8333333333333321:18.25] [-4.3802938634399311:7.3310285220397571] [-3.7849264705882351:13.249387254901961] [-3.0834522111269616:16.317403708987161] [-3.4700193423597683:15.485493230174082] [-7.7127937336814618:6.3864229765013052] [-265.73684210526318:7.9473684210526319] [-9.0000000000000018:5.6666666666666794] [-3.5065088757396454:7.0260355029585799] [-1.1594498217014775:12.340295466123282] [-3.2476190476190476:6.8476190476190473] [-0.73762376237623761:22.28217821782178] [-2.3154899894625922:16.483245521601685] [-4.8684210526315788:19.868421052631579] [-4.5081967213114762:12.049180327868852] [-4.5433628318584072:5.9876106194690255] [-4.1435897435897449:6.6769230769230763] [-1.8705281090289609:27.022146507666093] [-1.937592867756315:11.356116889549282] [-3.0538509705698185:2.3312460864120221] [0:1]
tree_sizes=3343 3380 3374 3356 3391 3384 3380 3384 3403 3423

Tree=0
num_leaves=31
num_cat=0
split_feature=63 51 83 84 63 66 5 37 66 36 7 50 66 26 3 9 73 66 44 32 85 40 2 63 79 64 4 50 71 38
split_gain=4026.72 1146.51 707.73 766.631 732.635 563.147 561.431 511.603 500.572 496.565 424.083 410.265 346.001 454.689 333.194 475.981 476.848 333.114 324.016 318.91 358.754 307.519 355.672 329.02 325.224 298.719 295.773 295.624 339.038 291.22
threshold=1.9282325029655996 0.15811388300841589 1.2725724020442932 2.6636948984645867 3.8262158956109142 1.506944444444446 0.25998573466476488 5.9016393442622954 1.9097222222222225 0.59210526315789502 -1.0000000180025095e-35 1.0643641170188036 1.8750000000000022 1.320970042796006 -1.8684096802074328 -0.58333333333332826 -1.0833333333333248 1.361111111111112 0.32674797796549293 2.8904737646459506 0.26455854727614242 -1.1465076660988072 1.3263888888888868 1.3944246737841048 1.3157894736842113 -1.0000000180025095e-35 -1.7781862745098034 0.1271173398788546 4.167101827676241 1.1115044247787609
decision_type=2 2 2 2 2 2 2 2 2 2 2 2 2 2 2 2 2 2 2 2 2 2 2 2 2 2 2 2 2 2
left_child=5 7 3 6 11 27 8 12 14 -6 -9 -4 19 25 15 16 26 -18 -17 -2 -21 22 -7 -23 -25 -14 -3 -1 -29 -15
right_child=1 2 4 -5 9 21 -8 10 -10 -11 -12 -13 13 29 -16 18 17 -19 -20 20 -22 23 -24 24 -26 -27 -28 28 -30 -31
leaf_value=-3.6483771661657505 -3.4597034077974378 -2.6727619884190084 -3.1854524248996734 -0.59176913548590049 -2.4684956189824021 -3.1424919391882051 -0.63136310129404594 -3.7048446971513291 -2.1388232460401468 -0.29231316021381293 -1.1783922330669987 -0.57882495435631842 -3.1094123651903747 -3.3985611594879601 -3.3178136813767085 -0.33935760345897537 -3.3377637337362249 -0.9633750020811056 -2.7147653544720676 -3.2894943387590532 -2.186115394744589 -3.5403158453938719 -1.1561038615623649 -3.2076369688569262 -1.3826586025036045 -1.2033027659251214 0.16546546059486067 -3.5710817495326497 -1.3231153693075086 -1.6208315352879861
leaf_weight=3830.5199724920094 307.985660135746 0.77513169497251511 5.9685140512883645 1.1885352656245221 1.860316067934036 6.0460272207856169 0.87848258763551612 1.0335089266300204 4.4699261076748362 2.4029082544147968 1.8603160679340351 0.67178080230951298 1.3435616046190264 10.774330560117958 71.570493169128895 1.1885352656245225 12.531295735388991 0.62010535597801286 1.1110220961272714 10.593466497957705 4.0823602601885787 270.46928609907627 1.0593466497957704 17.698840368539098 1.033508926630019 2.1186932995915404 0.69761852547526604 521.81865705549717 0.67178080230951209 1.0076712034642685
leaf_count=148253 11920 30 231 46 72 234 34 40 173 93 72 26 52 417 2770 46 485 24 43 410 158 10468 41 685 40 82 27 20196 26 39
internal_value=-3.60212 -3.31535 -3.02801 -3.11556 -2.26494 -3.62967 -3.14753 -3.40467 -3.17131 -1.24192 -2.0807 -2.92175 -3.41601 -2.95046 -3.22346 -2.82442 -3.03472 -3.22581 -1.48703 -3.438 -2.98257 -3.49628 -2.84634 -3.51225 -3.10695 -1.94299 -1.32834 -3.63875 -3.56819 -3.24652
internal_weight=0 446.734 105.935 95.0311 10.9035 4649.32 93.8426 340.8 92.9641 4.26322 2.89382 6.64029 337.906 15.2443 88.4942 16.9237 14.6242 13.1514 2.29956 322.661 14.6758 296.307 7.10537 289.202 18.7323 3.46225 1.47275 4353.01 522.49 11.782
internal_count=197233 17290 4100 3678 422 179943 3632 13190 3598 165 112 257 13078 590 3425 655 566 509 89 12488 568 11468 275 11193 725 134 57 168475 20222 456
is_linear=0
shrinkage=1


Tree=1
num_leaves=31
num_cat=0
split_feature=63 64 9 47 54 17 9 76 4 34 83 83 33 53 79 50 4 70 19 20 59 72 31 10 6 33 35 75 53 6
split_gain=1962.76 397.191 294.214 423.405 317.718 221.319 200.396 255.266 214.747 196.35 252.073 219.787 259.214 186.287 240.051 191.906 214.488 409.449 258.146 180.625 180.369 178.386 220.472 455.257 207.631 164.507 194.811 157.457 170.116 158.6
threshold=1.6909845788849351 1.1433691756272404 -2.7499999999999929 0.91105473376513846 1.5962744778722948 -2.499115044247787 2.0833333333333339 -1.0000000180025095e-35 -1.2061887254901957 0.10148514851485148 0.31856899488926754 -1.4872231686541737 0.20476190476190465 0.57818862300437679 0.59210526315789502 1.0083290203677617 -1.1859681372549014 0.56769825918762085 0.36967632027257241 -0.59534422981674073 0.70534822571679057 1.6052631578947374 -0.66035502958579906 -0.82603550295857986 0.90618955512572519 -3.1833333333333331 -1.0000000180025095e-35 -0.98115129903209375 0.01610941243080662 0.90618955512572519
decision_type=2 2 2 2 2 2 2 2 2 2 2 2 2 2 2 2 2 2 2 2 2 2 2 2 2 2 2 2 2 2
left_child=1 2 3 5 -5 -1 8 -8 -2 -4 11 12 -11 15 -15 -7 17 18 -17 -6 27 25 23 24 -23 26 -3 28 -10 -29
right_child=6 21 9 4 19 13 7 -9 20 10 -12 -13 -14 14 -16 16 -18 -19 -20 -21 -22 22 -24 -25 -26 -27 -28 29 -30 -31
leaf_value=1.6044414121140342 0.18751133536247414 2.6110510426354683 -0.054000941199848974 0.49610553467753499 1.1096643103908832 0.012953615622835575 -0.10311364616876187 2.6357613213211164 2.2581994059937376 0.23737684845911713 0.13855803794173346 -0.031955778190141018 2.0264756286212999 2.8611767540267667 -0.10265362308237372 -0.05466772057903925 0.078719572905247767 2.9694255273376164 2.2432489880623043 3.2998763728905143 1.4262161085744045 -0.024998203421362847 0.17267203630966144 2.9603208869320063 1.8473046749820607 0.030714070452940563 0.36046710707423141 0.051779092032197216 -0.10295997737600056 0.69676265507225144
leaf_weight=0.93721083179116149 470.42287504114211 0.51588548719882998 3188.5016748718917 3.6738865524530402 0.74234849214553833 107.21730113774538 0.63725980743765831 0.7302185334265221 0.67756170034408458 3.2348825857043257 120.20026350021362 434.28402268141508 1.0802557989954946 0.5398300252854813 0.55343173071742058 2.0769666433334359 4.9576545655727369 0.87883734703063954 0.63936838507652272 0.76410765945911385 0.98083405196666618 2.5747233480215077 33.950353976339102 0.88149460777640243 0.76926288753747929 554.77927570417523 1.511466871947049 243.84171157516539 0.55514467507600784 3.873008180409669
leaf_count=36 12952 20 126720 143 29 4201 22 25 23 129 4781 17402 43 21 22 78 186 33 24 29 34 102 1255 35 31 21612 60 7092 20 73
internal_value=0 -0.0277295 -0.0394234 0.112772 0.997589 0.0738614 0.15001 1.35942 0.147714 -0.0444182 0.010261 -0.0248995 0.685262 0.0615866 1.36082 0.0493174 0.505169 1.09323 0.486214 2.22059 0.0728059 0.0483373 0.257453 0.93864 0.405713 0.0339999 0.933157 0.0674736 1.19486 0.0618634
internal_weight=0 4465.26 3870.28 122.981 5.18034 117.801 721.719 1.36748 720.351 3747.3 558.799 438.599 4.31514 116.863 1.09326 115.77 8.55283 3.59517 2.71634 1.50646 249.928 594.982 38.1758 4.22548 3.34399 556.807 2.02735 248.947 1.23271 247.715
internal_count=197233 176992 153877 4802 201 4601 20241 47 20194 149075 22355 17574 172 4565 43 4522 321 135 102 58 7242 23115 1423 168 133 21692 80 7208 43 7165
is_linear=0
shrinkage=0.1


Tree=2
num_leaves=31
num_cat=0
split_feature=63 66 21 50 76 1 11 2 11 21 77 63 45 14 76 10 27 32 35 5 13 40 61 18 4 23 63 43 4 85
split_gain=1416.26 332.938 241.467 299.477 242.456 214.391 373.82 262.585 181.888 243.945 175.819 174.164 244.7 256.767 235.731 200.917 202.303 191.839 172.438 169.227 321.604 173.328 166.219 136.257 162.49 135.817 161.689 129.69 179.094 276.481
threshold=1.631672597864769 1.3125000000000007 1.1135005973715655 0.1271173398788546 0.16904761904761886 0.20394736842105413 0.71268466632705041 -2.2916666666666643 5.1828833418237403 2.1887694145758672 3.8217821782178225 -0.85943060498220625 1.0000000180025095e-35 1.630769230769231 -0.40238095238095239 3.2982248520710065 4.7988394584139273 0.088639836984207784 1.0000000180025095e-35 -1.0000000180025095e-35 -0.2153465346534654 0.93185689948892692 0.22446604629247455 -2.6307692307692307 -1.4512867647058818 2.1319444444444451 13.434756820877819 0.61662400653519833 -1.818933823529411 1.1418284283030682
decision_type=2 2 2 2 2 2 2 2 2 2 2 2 2 2 2 2 2 2 2 2 2 2 2 2 2 2 2 2 2 2
left_child=1 2 -1 8 -5 -6 7 -7 11 -10 23 17 13 14 -13 16 -16 -4 19 20 -19 -22 25 24 -3 -2 -27 -25 29 -29
right_child=22 10 3 4 5 6 -8 -9 9 -11 -12 12 -14 -15 15 -17 -18 18 -20 -21 21 -23 -24 27 -26 26 -28 28 -30 -31
leaf_value=-0.054601385257331152 0.07406708170202346 2.3281037473475528 0.034856021332134939 0.045150038217673771 0.23603229977481927 2.4668826937986048 2.9952033993448408 0.24757158856899131 -0.10260542030995211 2.8950982660314204 1.6703225724431172 1.8902931363091131 -0.043208533146920851 2.1064195223106603 0.057028168036610198 1.7706613710237844 1.5121727301949479 3.31288124081567 0.11851491966036527 0.32021976568276944 0.43394010369534891 2.3808185610590473 0.23602796475903964 0.019115904175157378 -0.10282766159569703 0.16665506211189926 1.474374430951725 0.31802600175128404 0.093918923478398891 1.7065730684842784
leaf_weight=2511.6495722886175 569.7780170943588 0.57592428103089333 138.60287556983531 125.52291895076632 44.736131211742759 0.6226273477077483 0.74241240881383408 3.7089555189013472 0.5933949127793301 0.50037764385342598 0.67674379982054134 0.80279358290136471 1077.4016454573721 0.7242567352950563 26.718257458880551 0.74734906852245231 0.99084405973553558 0.6148487534374002 11.709666561335323 4.7251420766115206 2.4227691199630503 0.56368189491331566 98.774297332391143 289.72193343751132 0.52618809789419063 179.9345619212836 0.95046989992260833 14.382132237777112 92.623395066708326 1.5927925948053587
leaf_count=104406 15105 22 5403 4373 1547 23 28 138 24 20 25 31 43780 28 1056 30 40 25 443 182 97 21 2060 10487 20 4006 27 466 3268 52
internal_value=0 -0.027078 -0.0358741 -0.00326534 0.119227 0.305902 0.921928 0.566578 -0.0202148 1.26878 0.0598516 -0.0213284 -0.0353667 0.246416 0.200376 0.152701 0.109062 0.0766664 0.365896 0.713794 1.23019 0.801406 0.11408 0.057123 1.16749 0.0980335 0.173527 0.0540507 0.147251 0.456472
internal_weight=0 4354.2 3954.1 1442.45 175.333 49.8101 5.074 4.33158 1267.12 1.09377 400.099 1266.02 1107.39 29.9835 29.2592 28.4565 27.7091 158.639 20.0361 8.32644 3.6013 2.98645 849.437 399.422 1.10211 750.663 180.885 398.32 108.598 15.9749
internal_count=197233 176035 161695 57289 6109 1736 189 161 51180 44 14340 51136 44965 1185 1157 1126 1096 6171 768 325 143 118 21198 14315 42 19138 4033 14273 3786 518
is_linear=0
shrinkage=0.1


Tree=3
num_leaves=31
num_cat=0
split_feature=63 66 34 83 5 39 35 3 63 63 13 10 19 33 63 50 45 28 53 21 85 86 50 30 27 16 72 0 85 64
split_gain=1087.48 317.273 228.207 266.756 205.527 166.277 273.48 155.344 179.522 152.577 188.281 206.767 177.434 141.746 229.682 138.237 183.169 243.707 139.439 205.912 132.893 285.354 130.545 159.414 180.321 148.236 125.95 245.685 115.43 105.823
threshold=1.9875444839857657 1.506944444444446 0.10148514851485148 0.31856899488926754 -2.4771754636233942 4.8307692307692314 -0.27650158061116969 -2.4680207433016417 0.979240806642942 -0.68149466192170804 0.15099009900990093 -1.0000000180025095e-35 2.0051107325383306 1.3 0.20818505338078305 0.1271173398788546 1.0000000180025095e-35 1.6083550913838123 0.28937216375127656 1.4121863799283159 -0.27896055103318745 1.0000000180025095e-35 0.31505763150996408 1.0000000180025095e-35 1.9216634429400388 0.23770491803278623 1.0526315789473688 -0.32019115890083627 0.6023794614902942 0.60573476702508977
decision_type=2 2 2 2 2 2 2 2 2 2 2 2 2 2 2 2 2 2 2 2 2 2 2 2 2 2 2 2 2 2
left_child=1 2 5 -4 -5 15 -7 8 28 10 11 -9 -12 -3 -15 29 17 26 -18 -20 21 -14 -2 24 -24 -25 -17 -28 -6 -1
right_child=22 13 3 4 7 6 -8 9 -10 -11 12 -13 20 14 -16 16 18 -19 19 -21 -22 -23 23 25 -26 -27 27 -29 -30 -31
leaf_value=-0.06292595677849315 0.090335262637783603 0.061564719934830238 -0.017665226662103458 1.5163662416964776 1.086401345805845 -0.1024071662874988 2.945432502717134 0.037036396812684391 2.2860203706212405 0.065406221405525641 0.11609311247631693 2.2568872686094812 0.44030659093674029 -0.10295861933090021 2.3909569141951343 0.069345278898349058 -0.0050060862713066541 2.0806246680922102 2.3898052043113398 -0.10290511012651163 0.2914922396412169 2.7972235685000566 0.22844938085705394 0.16786980774261925 1.4576081429615639 1.1030528136288742 -0.10284601947063723 2.008168737934553 -0.10314326236775816 -0.019722921092384646
leaf_weight=2114.5382216237485 697.65019276924431 362.4116104375571 510.03385752253234 1.0498790014535178 1.502898149192333 0.73272241652011871 0.49214231781661399 0.71428098343312729 0.62793275341391552 161.58884162083268 17.595415398478512 1.0170679930597568 1.2712977547198536 0.80597292445599922 0.68157817423343658 6.7455008458346093 461.43566402606666 0.82440036907792169 0.6016411967575539 0.73774577118456364 2.2540278993546954 0.8619719985872506 2.6492897979915133 74.259221848100424 2.1720337383449078 1.7345571219921101 1.116168921813369 1.0893939230591057 1.7841841019690035 774.66904550604522
leaf_count=93209 15558 11457 20552 39 26 32 21 26 24 5564 581 38 33 29 23 225 17178 32 20 27 70 30 26 1096 39 34 42 38 63 31101
internal_value=0 -0.0238909 -0.0319023 0.020031 0.12108 -0.0427168 1.12219 0.113338 0.7367 0.100168 0.337036 1.34107 0.257958 0.0655632 1.03972 -0.0431412 0.00699995 0.435369 -0.00204873 1.0168 0.826915 1.39265 0.104273 0.224592 0.782192 0.189215 0.283839 0.939848 0.440733 -0.0513421
internal_weight=0 4427.18 4063.28 700.302 190.268 3362.98 1.22486 189.218 3.91502 185.303 23.7141 1.73135 21.9827 363.899 1.48755 3361.76 472.551 9.77546 462.775 1.33939 4.3873 2.13327 778.465 80.8151 4.82132 75.9938 8.95106 2.20556 3.28708 2889.21
internal_count=197233 180480 168971 27046 6494 141925 53 6455 113 6342 778 64 714 11509 52 141872 17562 337 17225 47 133 63 16753 1195 65 1130 305 80 89 124310
is_linear=0
shrinkage=0.1


Tree=4
num_leaves=31
num_cat=0
split_feature=63 21 50 7 39 34 9 76 47 35 33 23 20 42 34 83 54 6 33 82 51 63 21 48 36 12 23 19 42 42
split_gain=855.224 242.656 208.326 133.912 215.172 214.171 128.623 125.406 131.75 130.487 267.98 243.635 125.704 133.362 110.653 160.933 142.202 150.599 117.229 483.683 106.296 102.007 290.011 145.366 98.2633 98.0152 98.0007 97.8607 106.041 93.8943
threshold=1.5723606168446029 1.5316606929510159 0.13869638860387654 0.58355091383812019 -0.7461538461538465 -0.18564356435643567 4.8333333333333419 -0.38333333333333336 1.0000000180025095e-35 0.30042149631190723 0.26428571428571418 1.4375000000000004 -1.7246161466072309 0.44418457964472152 0.10148514851485148 0.31856899488926754 1.9412510174005384 -0.97969052224371389 1.8714285714285714 -0.51538461538461566 0.13944333775567638 11.536773428232506 4.3243727598566322 0.60491063375238097 -1.842105263157894 -3.2452380952380948 4.180555555555558 -1.5042589437819418 0.3503250218426926 0.59118326607392835
decision_type=2 2 2 2 2 2 2 2 2 2 2 2 2 2 2 2 2 2 2 2 2 2 2 2 2 2 2 2 2 2
left_child=1 6 7 -4 5 -5 14 9 26 10 24 29 13 -10 18 27 -17 -18 25 -20 21 -2 -23 -24 -3 -1 -9 28 -16 -12
right_child=20 2 3 4 -6 -7 -8 8 12 -11 11 -13 -14 -15 15 16 17 -19 19 -21 -22 22 23 -25 -26 -27 -28 -29 -30 -31
leaf_value=1.2252455235028175 0.046421390489924441 0.81572894238735005 0.088073731341081068 0.4779633115469748 0.27307192051210433 2.8580329550922223 1.6282178435896579 0.04553773630980705 0.22003209625123726 0.01766564387413154 0.10712773915974748 2.3140069162094017 -0.042247500947632105 1.5786595879056133 0.064817025045462925 0.082961595387926565 1.9825646195930458 0.015567612547589343 3.1647621903064884 -0.059328846756926637 0.1239122357122676 0.14674670008013779 0.52236507872167026 2.1363909757345123 0.11176823885262739 -0.050340320516248517 0.94913873741205923 -0.039278343566841449 0.94557932146902601 1.2884605836000789
leaf_weight=0.60253040492534538 671.26459400169551 2.1193011607974759 158.55374995991588 0.85879218019545078 12.901143401861189 0.67543455772101768 0.46190745383500953 219.66747068986297 3.8773682303726664 69.419051382690668 1.7997455280274151 1.0740086417645214 665.31490946188569 0.88794502988457669 4.0084890946745864 137.14637124724686 0.81496578268706799 0.74511142075061687 0.58155277743935618 2.3280194886028758 324.30996399745345 29.513373222202066 1.1166287586092942 1.1154090948402879 30.801868136972189 2489.2933104410768 1.2068548724055279 362.54661106318235 2.0743448212742805 1.0745037943124769
leaf_count=26 16385 33 4612 23 277 24 14 8497 99 2504 46 26 26848 28 92 4073 26 16 26 107 5254 574 27 25 874 111090 25 15525 29 28
internal_value=0 -0.0253064 0.0133172 0.114621 0.406212 1.52578 -0.0403695 -0.00425578 -0.016504 0.0984142 0.250451 1.02894 -0.0385819 0.473192 -0.0406264 0.00194398 0.0937606 1.0431 -0.0492903 0.585089 0.0765528 0.0547051 0.229867 1.32894 0.157086 -0.0500316 0.050475 -0.0326044 0.365171 0.548755
internal_weight=0 4170.84 1170.23 172.989 14.4354 1.53423 3000.6 997.243 890.955 106.288 36.8694 3.94826 670.08 4.76531 3000.14 507.336 138.706 1.56008 2492.81 2.90957 1027.32 703.01 31.7454 2.23204 32.9212 2489.9 220.874 368.629 6.08283 2.87425
internal_count=197233 174968 43944 4936 324 47 131024 39008 35497 3511 1007 100 26975 127 131010 19761 4115 42 111249 133 22265 17011 626 52 907 111116 8522 15646 121 74
is_linear=0
shrinkage=0.1


Tree=5
num_leaves=31
num_cat=0
split_feature=63 21 63 29 45 33 38 0 53 80 38 33 1 18 41 66 4 2 12 23 11 23 22 16 21 48 70 48 27 26
split_gain=672.012 206.64 182.373 178.362 161.298 152.899 251.983 251.61 242.747 215.535 177.181 196.27 135.436 126.545 117.637 108.619 118.777 112.734 212.661 107.938 107.604 122.358 116.515 203.778 169.179 170.715 99.7198 129.854 94.5434 135.907
threshold=1.4537366548042707 0.96415770609319018 -0.68149466192170804 1.7105263157894739 1.0000000180025095e-35 0.34761904761904744 1.2176991150442478 0.21744324970131432 0.064437649723247017 -0.27049180327868888 1.3017699115044243 0.82380952380952366 -3.0855263157894717 -2.5794871794871796 -1.0708271421495787 1.0347222222222239 -1.2674632352941171 -1.8124999999999993 1.2047619047619051 1.8402777777777819 1.0000000180025095e-35 1.8750000000000022 -1.0000000180025095e-35 -1.0000000180025095e-35 1.651135005973716 0.3507793812697737 1.5348162475822049 0.27354227512052204 0.37427466150870387 -0.28388017118402259
decision_type=2 2 2 2 2 2 2 2 2 2 2 2 2 2 2 2 2 2 2 2 2 2 2 2 2 2 2 2 2 2
left_child=1 -1 20 4 14 13 -7 8 10 19 -8 12 -12 -5 -4 16 17 26 -19 -10 21 -3 23 -23 25 -25 -2 -28 29 -22
right_child=15 2 3 5 -6 6 7 -9 9 -11 11 -13 -14 -15 -16 -17 -18 18 -20 -21 28 22 -24 24 -26 -27 27 -29 -30 -31
leaf_value=-0.045218204721514561 0.11639434556474848 0.011131680143207286 1.091345813208821 1.6740959083854272 -0.042776201576649575 0.068710913415712269 1.7874385263377406 0.048275087372229804 3.0445536376050533 0.47209345169704336 1.1993930907950379 1.4806665895553754 -0.011645395887065734 -0.0040419703594906809 0.13231328042086651 0.11823840262736747 -0.0015049491572471331 0.040956328893329091 1.5945325392989032 1.4988532890020316 1.0727363073303424 2.2572814395700784 0.13115031225387816 0.29796844527425786 0.032357410178138375 2.5267398332836 1.2761168813147883 0.28720555195774405 0.091120411700914783 0.25201662110378092
leaf_weight=2210.0800091102719 145.76400043442845 265.41627772897482 1.3243781924247731 0.45028179883956809 1059.3358457460999 90.703863685950637 0.95224559865892189 9.3269698061048967 0.82591765746474288 1.1972691789269436 1.0744687728583784 1.3161409273743627 6.5707736760377893 218.1090750452131 37.341956939548254 263.71291865035892 338.14254769124091 388.21334269456565 0.88309760391712089 0.99730314686894417 2.2089728526771095 0.67777429521083821 28.427438605576754 0.73372800834476837 3.4587184078991413 0.64646847918629646 1.4474182352423692 16.06967088021338 56.457872573286295 23.299047840759158
leaf_count=102151 2923 10408 21 19 44533 2734 38 182 26 36 34 31 248 7923 1024 4397 8464 8537 25 26 69 22 768 20 88 24 29 332 1521 580
internal_value=0 -0.024698 0.000346169 -0.0160443 -0.0354536 0.0482392 0.142701 0.444178 0.729669 1.51452 0.490541 0.352731 0.158555 -0.000584626 0.165162 0.0618666 0.0451731 0.0737474 0.0444823 2.19905 0.0617911 0.0339949 0.212767 0.633338 0.405876 1.3419 0.143486 0.368918 0.16331 0.32309
internal_weight=0 4020.93 1810.85 1429.53 1098 331.524 112.965 22.2611 12.9341 3.02049 9.91363 8.96138 7.64524 218.559 38.6663 1154.23 890.52 552.378 389.096 1.82322 381.326 299.36 33.9441 5.51669 4.83891 1.3802 163.281 17.5171 81.9659 25.508
internal_count=197233 172526 70375 56875 45578 11297 3355 621 439 88 351 313 282 7942 1045 24707 20310 11846 8562 52 13500 11330 922 154 132 44 3284 361 2170 649
is_linear=0
shrinkage=0.1


Tree=6
num_leaves=31
num_cat=0
split_feature=63 66 75 29 63 50 1 4 20 70 27 28 30 51 24 35 51 37 64 1 78 44 74 8 51 19 77 28 31 25
split_gain=537.375 196.004 154.341 177.041 122.96 125.213 100.021 130.24 433.43 121.49 106.094 97.7176 116.158 130.444 95.7177 160.784 92.4268 91.6847 167.184 275.13 117.101 106.398 85.8597 171.075 92.5073 79.9938 94.3832 78.1845 259.203 77.2047
threshold=1.7502965599051012 1.3125000000000007 1.0000000180025095e-35 -1.5789473684210524 -0.74080664294187415 0.23185118934968968 -4.2368421052631549 -2.1663602941176463 0.95988112927191693 -2.2852998065764019 3.0580270793036752 -1.1723237597911225 0.41666666666667268 0.5270462766947287 1.0000000180025095e-35 -0.51359325605900941 2.2384475924497376 -0.75409836065573788 -0.70848267622461158 -1.7697368421052613 1.9258166491043205 0.55632662539999089 1.6118343195266271 2.0263157894736845 0.62583277851729024 -1.0272572402044291 -0.63613861386138604 0.89033942558746737 0.39289940828402337 4.56372549019608
decision_type=2 2 2 2 2 2 2 2 2 2 2 2 2 2 2 2 2 2 2 2 2 2 2 2 2 2 2 2 2 2
left_child=1 2 3 -1 -4 -6 7 8 10 -9 -5 12 14 -14 15 -8 29 18 19 -3 -20 -22 -11 24 -24 27 -27 -19 -29 -7
right_child=-2 17 4 6 5 16 11 9 -10 22 -12 -13 13 -15 -16 -17 -18 25 20 -21 21 -23 23 -25 -26 26 -28 28 -30 -31
leaf_value=1.9813758641949297 0.058228605837382867 2.4974555632844919 0.078521790862459889 -0.024931780293921072 -0.026647148745224083 0.064931771036987843 1.7453070893220648 1.6609014282814372 3.3610578424926638 -0.011455766611702035 0.94092426897967363 -0.04955531593613742 1.5674101868931696 0.18545333263840544 -0.09208286312332109 0.18851041617738429 0.948441167643432 0.11696224912290626 0.08569893600763584 0.21987437180999159 1.5891380383343758 0.26382129558194584 -0.076482511868201486 1.9237185324753743 0.80817297952001454 0.89970648077586146 0.010000934130836686 2.142292881537621 0.17236850737195969 0.69014779612658528
leaf_weight=0.43181689456105132 1051.652503028512 0.80755680426955256 174.63660364970565 3.8662613034248343 814.09317956864834 109.85790567845106 0.70354347303509612 0.45375567115843196 0.49084049277007569 70.613389853388071 1.6112288683652876 2421.0736591350287 1.1364907678216689 1.7118102144449947 16.266033304855227 11.627916354686027 1.2281145695596922 30.290204847231507 35.285497264936566 1.5452950969338406 1.0045256391167634 1.5259116422384975 3.8070758022367945 0.64130302891135205 1.7142817024141548 1.1960190851241339 388.19858600012958 0.84546081535518069 3.1812731716781855 2.0112344827502957
leaf_count=17 19379 29 6088 176 35297 3232 31 22 22 2907 46 114037 36 48 669 393 20 645 983 52 34 20 162 22 33 37 12641 21 80 54
internal_value=0 -0.0218956 -0.0297014 -0.0432776 0.001548 -0.01295 -0.0436224 0.0642088 0.51428 0.0294273 0.259179 -0.0472804 0.127867 0.736863 0.0672108 0.27733 0.0856441 0.039321 0.183711 1.0016 0.132823 0.789942 0.019785 0.37775 0.198187 0.0256325 0.0127336 0.171996 0.585978 0.0761722
internal_weight=0 4101.86 3637.98 2536.15 1101.83 927.19 2535.72 83.1981 5.96833 77.2298 5.47749 2452.52 31.4458 2.8483 28.5975 12.3315 113.097 463.88 40.1688 2.35285 37.8159 2.53044 76.7761 6.16266 5.52136 423.712 389.395 34.3169 4.02673 111.869
internal_count=197233 177854 163312 118621 44691 38603 118604 3390 244 3146 222 115214 1177 84 1093 424 3306 14542 1118 81 1037 54 3124 217 195 13424 12678 746 101 3286
is_linear=0
shrinkage=0.1


Tree=7
num_leaves=31
num_cat=0
split_feature=63 21 54 63 4 58 23 9 32 81 45 44 23 11 64 68 35 58 44 40 72 43 45 40 75 76 25 26 63 14
split_gain=440.162 192.942 183.077 120.148 111.841 163.756 144.064 108.056 210.255 105.37 96.4347 93.7661 89.3342 167.534 93.7225 86.7588 80.2737 170.405 97.4683 80.0906 76.5554 82.5917 105.319 116.032 105.106 90.1121 128.449 78.2762 89.6165 106.697
threshold=2.2247924080664299 0.96415770609319018 0.99837263653299557 -0.80011862396204014 -1.9365808823529407 0.25396612106278316 1.0000000000000036 -2.9166666666666634 -0.66276107997962297 2.3327433628318581 1.0000000180025095e-35 1.0000000180025095e-35 1.7291666666666683 2.5338767193071834 1.4719235364396659 -1.9365808823529407 -1.1511064278187564 0.77626398587407086 0.98209275164798371 2.209540034071551 -0.23684210526315777 1.0861432070102117 0.38277934628876747 0.28449744463373089 0.95466123280692827 0.29999999999999999 1.826899509803922 0.82168330955777502 3.707591933570582 -0.61369863013698633
decision_type=2 2 2 2 2 2 2 2 2 2 2 2 2 2 2 2 2 2 2 2 2 2 2 2 2 2 2 2 2 2
left_child=1 7 3 -3 5 6 -4 8 -1 15 -5 -6 -12 -14 -15 -2 17 18 19 -9 -17 27 -23 25 -25 26 -24 28 -22 -30
right_child=9 2 4 10 11 -7 -8 16 -10 -11 12 -13 13 14 -16 20 -18 -19 -20 -21 21 22 23 24 -26 -27 -28 -29 29 -31
leaf_value=2.1809167717518672 0.76885896036161339 0.051784457056492567 0.020296322064972415 0.091248958692725174 0.37946456954380237 0.19465924828705472 1.6424139846705108 -0.0030340252615826862 0.082131736737519209 1.0127963304377496 -0.03736818821321794 0.060971344608323097 0.014474039599799397 1.7377913672521932 0.25148218681792611 0.023562929015523346 -0.045250440258918903 1.7571400515566737 1.2191421429062723 0.7592166118396646 0.067210610966097969 -0.019328671627073132 0.51535977911082442 0.091110010474435316 0.5829635624494135 0.23414775921577069 1.5309145608891339 0.046480845007144847 0.22341358864053637 0.8561189087850688
leaf_weight=0.48169865645468135 1.706897024065255 297.80402817949653 0.80748486332595293 77.517754858359694 9.8050812259316427 8.0418112501502019 1.7005611136555669 17.283052569255243 52.510441889986396 1.1539227738976467 1115.2642610464245 161.4465735591948 374.90209067426622 0.86653707176446804 0.83121297881007195 412.45907244458795 2110.307450093329 0.64285057410597701 0.7515425831079473 1.4979015700519074 49.836362175643444 15.679383277893065 3.8851612210273725 22.833650708198551 5.3655795678496352 4.279391098767519 1.8330513499677179 346.54979302734137 32.347008250653744 2.9046562239527693
leaf_count=20 25 9932 30 1741 189 131 35 697 1761 15 47329 4750 12296 23 19 7066 102898 20 17 32 808 260 44 303 58 75 37 6098 468 56
internal_value=0 -0.019161 0.00287947 -0.00644774 0.0986742 0.414681 1.12016 -0.039844 0.10121 0.0578203 -0.0174978 0.0792068 -0.0231483 0.0189624 1.0101 0.0565955 -0.0433525 0.15517 0.102446 0.0577604 0.0552416 0.0821536 0.198896 0.288475 0.184697 0.58119 0.84091 0.067582 0.153524 0.275547
internal_weight=0 4232.46 2048.99 1867.19 181.802 10.5499 2.50805 2183.47 52.9921 900.834 1569.38 171.252 1491.86 376.6 1.69775 899.68 2130.48 20.1753 19.5325 18.781 897.973 485.514 53.8762 38.1968 28.1992 9.9976 5.71821 431.638 85.088 35.2517
internal_count=197233 181920 76475 71340 5135 196 65 105445 1781 15313 61408 4939 59667 12338 42 15298 103664 766 746 729 15273 8207 777 517 361 156 81 7430 1332 524
is_linear=0
shrinkage=0.1


Tree=8
num_leaves=31
num_cat=0
split_feature=63 64 34 83 85 83 36 14 76 20 50 23 5 74 70 24 20 74 25 53 21 37 14 66 75 45 33 34 63 47
split_gain=360.956 143.02 119.408 105.664 389.736 99.7448 91.1705 94.7646 202.128 218.927 85.4893 83.7758 157.54 131.628 310.073 90.7216 79.054 118.964 78.4367 91.1291 129.962 232.343 76.1152 132.954 80.4136 111.039 81.9652 103.889 81.6771 79.7067
threshold=1.4537366548042707 1.2628434886499407 0.10643564356435643 6.2981260647359454 0.94583594239198487 0.28023850085178875 2.6315789473684221 -0.5504741833508956 0.12142857142857139 -0.12976721149083695 0.12711733987885246 1.548611111111114 -2.2453637660485017 1.1857988165680473 -1.0000000180025095e-35 -0.28565254969749343 0.56364536899455187 -1.6071005917159764 1.3673406862745103 0.34198528443332632 1.1135005973715655 2.0081967213114753 -0.6663856691253951 1.8402777777777819 -0.94294447274579729 0.40633407804080429 -0.20238095238095247 -0.19554455445544558 13.790628706998815 0.78459794086667711
decision_type=2 2 2 2 2 2 2 2 2 2 2 2 2 2 2 2 2 2 2 2 2 2 2 2 2 2 2 2 2 2
left_child=1 2 3 10 -5 11 -3 8 -8 -10 -1 -4 -13 15 -15 -14 -12 -18 19 -7 21 -21 23 29 25 -24 27 -26 -28 -2
right_child=22 6 5 4 -6 18 7 -9 9 -11 16 12 13 14 -16 -17 17 -19 -20 20 -22 -23 24 -25 26 -27 28 -29 -30 -31
leaf_value=-0.046980938307457851 0.034764552397340581 0.019268419674227204 -0.034087617359609121 0.0059634289107454441 3.3252544449716797 0.095522927989665871 0.23656605232637387 0.090878784667750831 0.50280368320364566 3.1626572361256282 -0.014797124854130626 1.7139108930944955 1.1969319085658507 -0.10283526347924109 2.9845919704878194 0.039541352311536035 1.1263383011732098 0.091785033722749432 -0.030574272273989834 1.8903250370057909 0.0077559349950071148 -0.10389715834543217 0.088642377755659557 0.18056116675861886 0.1055689878002998 1.2121417071110256 -0.011755454089073173 1.1564076966720194 0.83026203529386189 0.14702082171692396
leaf_weight=2191.6828068438917 788.45781127922237 555.20707058534026 343.02732856571674 1.8472480848431581 0.43751906603574742 133.46691305935383 3.069377137348055 8.0174572654068452 0.66092017851769924 0.58188882656395413 404.85346621833742 0.60548099130391975 0.68843304365873237 0.87373359873890877 0.51822316646575817 41.703420329838991 1.1350294817239035 53.616003250703216 54.82531307078898 1.3996896371245378 2.3127523921430111 1.0027886182069776 2.7881924845278254 77.474909476935863 3.126917427405715 1.2851664423942564 355.74073041789234 1.3456711098551739 1.1557579524815071 68.768721697852015
leaf_count=113184 15182 18779 15712 89 15 3535 54 165 29 24 15905 26 12 35 20 1468 30 1669 1637 37 69 32 41 749 63 29 7386 31 12 1214
internal_value=0 -0.0210599 -0.0291854 -0.0381721 0.641588 0.0119001 0.0252412 0.294198 0.67222 1.74816 -0.0387579 -0.0173596 0.11191 0.0897558 1.04661 0.0583371 0.000454535 0.113232 0.0706321 0.110787 0.542841 1.05794 0.0399792 0.0551083 0.00128309 0.443112 -0.00369722 0.421736 -0.0090287 0.04377
internal_weight=0 3801.53 3234 2653.57 2.28477 580.424 567.537 12.3296 4.31219 1.24281 2651.29 387.417 44.3893 43.7838 1.39196 42.3919 459.604 54.751 193.007 138.182 4.71523 2.40248 1300.14 934.701 365.442 4.07336 361.369 4.47259 356.896 857.227
internal_count=197233 172526 153475 130892 104 22583 19051 272 107 53 130788 17273 1561 1535 55 1480 17604 1699 5310 3673 138 69 24707 17145 7562 70 7492 94 7398 16396
is_linear=0
shrinkage=0.1


Tree=9
num_leaves=31
num_cat=0
split_feature=63 6 75 23 31 76 77 8 81 54 63 54 19 11 20 42 30 30 0 20 35 77 23 35 83 15 8 13 26 23
split_gain=297.065 120.484 99.9058 98.566 89.132 85.6989 163.789 123.027 92.2517 84.9559 85.6787 80.4015 113.505 79.3481 75.252 378.439 74.7296 93.9749 71.2197 69.3661 140.146 68.5454 67.8243 102.243 166.22 156.026 139.241 131.656 224.653 92.731
threshold=1.2164887307236065 0.05996131528046398 1.0000000180025095e-35 2.1666666666666656 6.0378698224852085 -0.1761904761904762 -0.60148514851485146 2.3421052631578951 -0.034513274336283539 0.99837263653299557 -0.68149466192170804 0.012573768320352815 -1.6064735945485518 -1.1212429954151808 -1.7543338286280334 0.53669327746479445 -1.0000000180025095e-35 -0.74999999999999878 -3.2622461170848269 3.2233779098563646 0.49272918861959952 -0.60148514851485146 1.2569444444444462 -0.2975763962065332 -0.9591141396933559 -1.0000000180025095e-35 -1.0000000180025095e-35 -0.36386138613861385 0.10841654778887329 1.3333333333333348
decision_type=2 2 2 2 2 2 2 2 2 2 2 2 2 2 2 2 2 2 2 2 2 2 2 2 2 2 2 2 2 2
left_child=1 2 3 14 -3 6 -2 11 -9 10 19 -8 -13 -5 15 -1 17 -14 -12 -4 -21 -15 -20 27 25 26 -25 28 -24 -29
right_child=5 4 9 13 -6 -7 7 8 -10 -11 18 12 16 21 -16 -17 -18 -19 22 20 -22 -23 23 24 -26 -27 -28 29 -30 -31
leaf_value=0.023061395557035402 1.1496153156226308 0.028954203588282504 0.048986584802918842 1.1353074205864766 1.0494546088877768 0.020802624208495258 -0.006516042762938332 0.23824531166513899 1.0432905240678714 0.093994720723985695 0.93995428521727276 1.2321020545350949 -0.0013242026914251815 0.50522276883788775 -0.046235409507675761 2.8363421479474815 0.081638005371848843 0.51415906963892488 -0.043833767557035455 1.7891446589553028 -0.10341281785571697 0.017887891978176002 0.018583100250950415 1.5909219128936125 -0.032921371900486184 -0.10752378962457786 0.29836478847806541 0.70893871297567079 2.4977544542003436 0.09159323388490119
leaf_weight=3.9547774735838166 1.4330271314829577 391.15612751245499 161.25953051820397 0.6460080873221149 0.85774533450603385 1220.4108178168535 94.480586750432849 4.1672051772475243 2.1618687678128472 87.101206880062819 0.76366980560123821 0.89539018645882507 5.7413469702005377 2.9301244597882024 2061.8433130253106 0.54391844570636738 148.33864715322852 9.2094155009835941 522.12535292282701 0.68717996589839347 0.90866360627114773 192.43494047597051 0.82908291928470379 1.7060176655650141 124.73922951519489 2.3262612745165816 1.6294456906616686 2.6699344404041794 0.65370112285017967 27.435478707775474
leaf_count=167 33 15270 5471 23 11 26652 2063 52 30 2335 25 15 93 69 105111 21 2106 118 24353 31 31 7074 44 35 4871 77 47 103 30 872
internal_value=0 -0.0211367 -0.0275522 -0.0389153 0.0311871 0.03202 0.083403 0.0776372 0.513231 -5.27274e-05 -0.00971572 0.066979 0.109272 0.0288557 -0.045344 0.363203 0.103115 0.316205 -0.0252182 0.055479 0.711534 0.025197 -0.0262956 0.0302336 -0.00886807 0.521075 0.95948 0.191651 1.11155 0.146343
internal_weight=0 3589.2 3197.19 2262.35 392.014 1486.84 266.427 264.994 6.32907 934.835 847.734 258.665 164.185 196.011 2066.34 4.4987 163.289 14.9508 684.878 162.855 1.59584 195.365 684.115 161.989 130.401 5.66172 3.33546 31.5882 1.48278 30.1054
internal_count=197233 166071 150790 112465 15281 31162 4510 4477 82 38325 35990 4395 2332 7166 105299 188 2317 211 30457 5533 62 7143 30432 6079 5030 159 82 1049 74 975
is_linear=0
shrinkage=0.1


end of trees

feature_importances:
ICULOS=24
Temp_cummax=11
HR_cummax=9
FiO2_roll_std=9
Temp=9
MAP_cummin=8
Calcium_cummax=8
Glucose_cummax=8
WBC=8
Platelets_cummin=7
Calcium=7
Creatinine_cummax=6
SBP_roll_std=6
HR=6
pH_cummin=5
BUN_cummin=5
WBC_cummin=5
pH_roll_std=5
BUN_roll_std=5
Calcium_roll_std=5
BUN=5
Age=5
O2Sat_cummin=4
DBP_cummin=4
Resp_cummin=4
Glucose_cummin=4
DBP_cummax=4
Resp_cummax=4
pH_cummax=4
WBC_cummax=4
HR_roll_std=4
Temp_roll_std=4
Resp=4
Creatinine=4
HR_cummin=3
Temp_cummin=3
FiO2_cummin=3
PaCO2_cummin=3
Creatinine_cummin=3
MAP_cummax=3
BaseExcess_cummax=3
PaCO2_cummax=3
BUN_cummax=3
Magnesium_cummax=3
Potassium_cummax=3
Hct_cummax=3
DBP_roll_std=3
Resp_roll_std=3
FiO2=3
PaCO2=3
SBP_cummin=2
BaseExcess_cummin=2
Calcium_cummin=2
Potassium_cummin=2
Hgb_cummin=2
SBP_cummax=2
FiO2_cummax=2
Hgb_cummax=2
O2Sat_roll_std=2
Potassium_roll_std=2
Magnesium=2
Hct=2
Magnesium_cummin=1
Hct_cummin=1
O2Sat_cummax=1
Platelets_cummax=1
Hct_roll_std=1
WBC_roll_std=1
MAP=1
BaseExcess=1
pH=1
Glucose=1
Potassium=1
Hgb=1
Platelets=1
Sex=1

parameters:
[boosting: gbdt]
[objective: binary]
[metric: binary_logloss]
[tree_learner: serial]
[device_type: cpu]
[data: ]
[valid: ]
[num_iterations: 10]
[learning_rate: 0.1]
[num_leaves: 31]
[num_threads: 0]
[deterministic: 0]
[force_col_wise: 0]
[force_row_wise: 0]
[histogram_pool_size: -1]
[max_depth: -1]
[min_data_in_leaf: 20]
[min_sum_hessian_in_leaf: 0.001]
[bagging_fraction: 1]
[pos_bagging_fraction: 1]
[neg_bagging_fraction: 1]
[bagging_freq: 0]
[bagging_seed: 3]
[feature_fraction: 1]
[feature_fraction_bynode: 1]
[feature_fraction_seed: 2]
[extra_trees: 0]
[extra_seed: 6]
[early_stopping_round: 0]
[first_metric_only: 0]
[max_delta_step: 0]
[lambda_l1: 0]
[lambda_l2: 0]
[linear_lambda: 0]
[min_gain_to_split: 0]
[drop_rate: 0.1]
[max_drop: 50]
[skip_drop: 0.5]
[xgboost_dart_mode: 0]
[uniform_drop: 0]
[drop_seed: 4]
[top_rate: 0.2]
[other_rate: 0.1]
[min_data_per_group: 100]
[max_cat_threshold: 32]
[cat_l2: 10]
[cat_smooth: 10]
[max_cat_to_onehot: 4]
[top_k: 20]
[monotone_constraints: ]
[monotone_constraints_method: basic]
[monotone_penalty: 0]
[feature_contri: ]
[forcedsplits_filename: ]
[refit_decay_rate: 0.9]
[cegb_tradeoff: 1]
[cegb_penalty_split: 0]
[cegb_penalty_feature_lazy: ]
[cegb_penalty_feature_coupled: ]
[path_smooth: 0]
[interaction_constraints: ]
[verbosity: 1]
[saved_feature_importance_type: 0]
[linear_tree: 0]
[max_bin: 255]
[max_bin_by_feature: ]
[min_data_in_bin: 3]
[bin_construct_sample_cnt: 200000]
[data_random_seed: 1]
[is_enable_sparse: 1]
[enable_bundle: 1]
[use_missing: 1]
[zero_as_missing: 0]
[feature_pre_filter: 1]
[pre_partition: 0]
[two_round: 0]
[header: 0]
[label_column: ]
[weight_column: ]
[group_column: ]
[ignore_column: ]
[categorical_feature: ]
[forcedbins_filename: ]
[precise_float_parser: 0]
[objective_seed: 5]
[num_class: 1]
[is_unbalance: 0]
[scale_pos_weight: 1]
[sigmoid: 1]
[boost_from_average: 1]
[reg_sqrt: 0]
[alpha: 0.9]
[fair_c: 1]
[poisson_max_delta_step: 0.7]
[tweedie_variance_power: 1.5]
[lambdarank_truncation_level: 30]
[lambdarank_norm: 1]
[label_gain: ]
[eval_at: ]
[multi_error_top_k: 1]
[auc_mu_weights: ]
[num_machines: 1]
[local_listen_port: 12400]
[time_out: 120]
[machine_list_filename: ]
[machines: ]
[gpu_platform_id: -1]
[gpu_device_id: -1]
[gpu_use_dp: 0]
[num_gpu: 1]

end of parameters

pandas_categorical:[]
